{"learner":{"attributes":{"best_iteration":"4","best_score":"5251366342.076666","scikit_learn":"{\"_estimator_type\": \"regressor\"}"},"feature_names":[],"feature_types":[],"gradient_booster":{"model":{"gbtree_model_param":{"num_parallel_tree":"1","num_trees":"15"},"iteration_indptr":[0,1,2,3,4,5,6,7,8,9,10,11,12,13,14,15],"tree_info":[0,0,0,0,0,0,0,0,0,0,0,0,0,0,0],"trees":[{"base_weights":[-2.0625382E8,-2.8134538E9,1.1168421E10,-3.9088573E9,1.7629507E9,5.3876593E9,1.3520321E9,-1.8942317E9,-4.5505777E9,-1.1982767E9,6.495398E8,-1.3519191E9,-6.14328E8],"categories":[],"categories_nodes":[],"categories_segments":[],"categories_sizes":[],"default_left":[0,0,0,0,0,0,0,0,0,0,0,0,0],"id":0,"left_children":[1,3,5,7,-1,-1,-1,9,11,-1,-1,-1,-1],"loss_changes":[2.2259696E21,6.2617184E20,6.0761215E20,6.2485475E19,0E0,0E0,0E0,1.54754E20,9.378113E18,0E0,0E0,0E0,0E0],"parents":[2147483647,0,0,1,1,2,2,3,3,7,7,8,8],"right_children":[2,4,6,8,-1,-1,-1,10,12,-1,-1,-1,-1],"split_conditions":[8.928895E-2,-1.0389724E-1,-2.8330088E-1,-1.8203753E-1,1.7629507E9,5.3876593E9,1.3520321E9,-5.242361E-1,1.1766244E0,-1.1982767E9,6.495398E8,-1.3519191E9,-6.14328E8],"split_indices":[414,148,388,15,0,0,0,87,34,0,0,0,0],"split_type":[0,0,0,0,0,0,0,0,0,0,0,0,0],"sum_hessian":[7.3E1,6E1,1.3E1,5.4E1,6E0,5E0,8E0,1.4E1,4E1,9E0,5E0,3.6E1,4E0],"tree_param":{"num_deleted":"0","num_feature":"2926","num_nodes":"13","size_leaf_vector":"1"}},{"base_weights":[3.1389834E8,-2.5573338E9,1.1012238E10,-9.4545824E8,1.2442298E9,6.518797E9,2.7736773E9,-5.211167E8,1.7497574E9],"categories":[],"categories_nodes":[],"categories_segments":[],"categories_sizes":[],"default_left":[0,0,0,0,0,0,0,0,0],"id":1,"left_children":[1,3,5,-1,-1,-1,7,-1,-1],"loss_changes":[2.1783811E21,3.1144E20,1.406496E21,0E0,0E0,0E0,1.6668482E20,0E0,0E0],"parents":[2147483647,0,0,1,1,2,2,6,6],"right_children":[2,4,6,-1,-1,-1,8,-1,-1],"split_conditions":[-5.9960622E-2,6.616893E-2,7.894228E-1,-9.4545824E8,1.2442298E9,6.518797E9,1.3828532E-1,-5.211167E8,1.7497574E9],"split_indices":[1129,81,23,0,0,0,110,0,0],"split_type":[0,0,0,0,0,0,0,0,0],"sum_hessian":[6.9E1,5.5E1,1.4E1,5E1,5E0,5E0,9E0,4E0,5E0],"tree_param":{"num_deleted":"0","num_feature":"2926","num_nodes":"9","size_leaf_vector":"1"}},{"base_weights":[-3.5282643E8,-1.8240716E9,6.046091E9,6.693286E8,-2.8685048E9,4.2544474E9,1.4489344E9,-2.1886372E9,2.7548767E9,-7.1371245E8,-1.3811183E9,-7.4537656E7,8.3045485E8,-5.489796E8,-1.6180712E9,-7.2414586E8,3.5288854E8],"categories":[],"categories_nodes":[],"categories_segments":[],"categories_sizes":[],"default_left":[0,0,0,0,0,0,0,0,0,0,0,0,0,0,0,0,0],"id":2,"left_children":[1,3,5,7,9,-1,11,13,-1,-1,-1,-1,-1,15,-1,-1,-1],"loss_changes":[7.547642E20,1.7119234E20,5.9237E20,5.362864E20,2.0737247E19,0E0,2.8417467E19,8.8632415E19,0E0,0E0,0E0,0E0,0E0,4.6002194E19,0E0,0E0,0E0],"parents":[2147483647,0,0,1,1,2,2,3,3,4,4,6,6,7,7,13,13],"right_children":[2,4,6,8,10,-1,12,14,-1,-1,-1,-1,-1,16,-1,-1,-1],"split_conditions":[1.2921418E-1,-3.7035084E-1,8.047793E-1,-4.9918595E-1,2.081666E0,4.2544474E9,1.4757615E0,-2.0367879E-1,2.7548767E9,-7.1371245E8,-1.3811183E9,-7.4537656E7,8.3045485E8,-1.0938835E-1,-1.6180712E9,-7.2414586E8,3.5288854E8],"split_indices":[110,976,17,87,6,0,17,109,0,0,0,0,0,12,0,0,0],"split_type":[0,0,0,0,0,0,0,0,0,0,0,0,0,0,0,0,0],"sum_hessian":[7.8E1,6.4E1,1.4E1,1.9E1,4.5E1,4E0,1E1,1.5E1,4E0,4E1,5E0,5E0,5E0,1.1E1,4E0,5E0,6E0],"tree_param":{"num_deleted":"0","num_feature":"2926","num_nodes":"17","size_leaf_vector":"1"}},{"base_weights":[-4.326809E8,-1.6308032E9,2.4512064E9,-1.1918303E9,-1.1555656E9,3.0549363E9,-4.463689E8,8.20525E7,-5.2113712E8,1.7598162E9,-1.4660993E9,-1.7414022E9,1.367805E9,2.8408694E8,7.062516E8,-5.571746E8,-2.8550285E8],"categories":[],"categories_nodes":[],"categories_segments":[],"categories_sizes":[],"default_left":[0,0,0,0,0,0,0,0,0,0,0,0,0,0,0,0,0],"id":3,"left_children":[1,3,5,7,-1,-1,9,11,-1,13,-1,15,-1,-1,-1,-1,-1],"loss_changes":[2.7005163E20,5.382865E19,5.5688554E20,3.9253713E19,0E0,0E0,1.9593517E20,1.54826E20,0E0,4.670123E18,0E0,1.13707094E17,0E0,0E0,0E0,0E0,0E0],"parents":[2147483647,0,0,1,1,2,2,3,3,6,6,7,7,9,9,11,11],"right_children":[2,4,6,8,-1,-1,10,12,-1,14,-1,16,-1,-1,-1,-1,-1],"split_conditions":[-3.1949404E-1,-1.74911E-1,-8.6254194E-2,-8.350085E-1,-1.1555656E9,3.0549363E9,1.6082618E0,-5.242361E-1,-5.2113712E8,4.098713E-1,-1.4660993E9,-9.099079E-1,1.367805E9,2.8408694E8,7.062516E8,-5.571746E8,-2.8550285E8],"split_indices":[124,2023,1058,0,0,0,0,87,0,0,0,0,0,0,0,0,0],"split_type":[0,0,0,0,0,0,0,0,0,0,0,0,0,0,0,0,0],"sum_hessian":[7.6E1,5.4E1,2.2E1,4.7E1,7E0,5E0,1.7E1,1.6E1,3.1E1,1.2E1,5E0,1.2E1,4E0,7E0,5E0,8E0,4E0],"tree_param":{"num_deleted":"0","num_feature":"2926","num_nodes":"17","size_leaf_vector":"1"}},{"base_weights":[-1.7132544E8,-7.8756045E8,1.3383002E9,-1.3058609E9,1.008901E9,-9.9310234E8,-1.2406904E9,5.105506E8,-1.271764E9,-4.2564925E8,6.8716346E8,-1.329488E9,-1.9207576E8,-3.1789955E8,-4.4910186E8],"categories":[],"categories_nodes":[],"categories_segments":[],"categories_sizes":[],"default_left":[0,0,0,0,0,0,0,0,0,0,0,0,0,0,0],"id":4,"left_children":[1,3,-1,5,-1,7,-1,9,11,-1,-1,13,-1,-1,-1],"loss_changes":[2.1396238E20,1.4611343E20,0E0,5.011573E19,0E0,2.2856846E19,0E0,3.7996443E19,6.528284E17,0E0,0E0,3.4949077E17,0E0,0E0,0E0],"parents":[2147483647,0,0,1,1,3,3,5,5,7,7,8,8,11,11],"right_children":[2,4,-1,6,-1,8,-1,10,12,-1,-1,14,-1,-1,-1],"split_conditions":[5.488153E-1,-1.03977956E-1,1.3383002E9,2.6995398E-2,1.008901E9,-4.732976E-1,-1.2406904E9,-9.047424E-1,1.8416968E-1,-4.2564925E8,6.8716346E8,-2.8997758E-1,-1.9207576E8,-3.1789955E8,-4.4910186E8],"split_indices":[105,1270,0,81,0,15,0,0,89,0,0,30,0,0,0],"split_type":[0,0,0,0,0,0,0,0,0,0,0,0,0,0,0],"sum_hessian":[6.9E1,6.2E1,7E0,5.6E1,6E0,5.2E1,4E0,8E0,4.4E1,4E0,4E0,3.9E1,5E0,2.4E1,1.5E1],"tree_param":{"num_deleted":"0","num_feature":"2926","num_nodes":"15","size_leaf_vector":"1"}},{"base_weights":[3.4182822E8,-4.145318E8,4.711393E9,-8.3991245E8,7.5925856E8,2.439371E9,1.8588896E7,-5.63606E8,-8.806151E8,-6.934307E8,2.2635355E8,-1.3863997E8,-9.931986E8,4.7450838E8,-7.737789E8,-3.6778867E8,-2.1740517E8,-2.9227907E8,-1.2959126E8],"categories":[],"categories_nodes":[],"categories_segments":[],"categories_sizes":[],"default_left":[0,0,0,0,0,0,0,0,0,0,0,0,0,0,0,0,0,0,0],"id":5,"left_children":[1,3,5,7,-1,-1,-1,9,-1,11,-1,13,15,-1,17,-1,-1,-1,-1],"loss_changes":[2.4652036E20,8.616427E19,1.9675493E20,3.3765725E19,0E0,0E0,0E0,9.72629E18,0E0,7.845108E18,0E0,2.1938692E19,1.1389467E18,0E0,6.614041E17,0E0,0E0,0E0,0E0],"parents":[2147483647,0,0,1,1,2,2,3,3,7,7,9,9,11,11,12,12,14,14],"right_children":[2,4,6,8,-1,-1,-1,10,-1,12,-1,14,16,-1,18,-1,-1,-1,-1],"split_conditions":[1.3828532E-1,-1.03977956E-1,8.047793E-1,3.863024E-1,7.5925856E8,2.439371E9,1.8588896E7,3.7887847E-1,-8.806151E8,7.894228E-1,2.2635355E8,-2.4233213E-1,-9.634536E-2,4.7450838E8,-4.732976E-1,-3.6778867E8,-2.1740517E8,-2.9227907E8,-1.2959126E8],"split_indices":[110,1270,17,399,0,0,0,0,0,23,0,109,0,0,15,0,0,0,0],"split_type":[0,0,0,0,0,0,0,0,0,0,0,0,0,0,0,0,0,0,0],"sum_hessian":[7.3E1,6.3E1,1E1,5.6E1,7E0,5E0,5E0,5.1E1,5E0,4.7E1,4E0,1.7E1,3E1,4E0,1.3E1,1.1E1,1.9E1,6E0,7E0],"tree_param":{"num_deleted":"0","num_feature":"2926","num_nodes":"19","size_leaf_vector":"1"}},{"base_weights":[3.5802915E8,-1.0126365E8,1.9635782E9,-3.901425E8,6.4270374E8,-1.16192344E8,-1.0398936E9,7.997866E8,-6.916477E8,7.2822304E8,-7.515275E7,-2.4139416E8,-1.123797E8,-5.79244E8,3.5585494E8,-3.7397926E8,-1.0657135E8,6.0840052E7,-1.1542804E8],"categories":[],"categories_nodes":[],"categories_segments":[],"categories_sizes":[],"default_left":[0,0,0,0,0,0,0,0,0,0,0,0,0,0,0,0,0,0,0],"id":6,"left_children":[1,3,-1,5,-1,7,-1,9,11,-1,13,-1,-1,15,-1,-1,17,-1,-1],"loss_changes":[2.2906282E20,4.996325E19,0E0,5.769957E19,0E0,3.2706574E19,0E0,3.713449E19,1.4312354E18,0E0,1.2084733E19,0E0,0E0,4.376098E18,0E0,0E0,9.490007E17,0E0,0E0],"parents":[2147483647,0,0,1,1,3,3,5,5,7,7,8,8,10,10,13,13,16,16],"right_children":[2,4,-1,6,-1,8,-1,10,12,-1,14,-1,-1,16,-1,-1,18,-1,-1],"split_conditions":[1.2670985E-1,1.07356E0,1.9635782E9,-1.3081586E-1,6.4270374E8,7.894228E-1,-1.0398936E9,2.9807818E-1,7.283695E-2,7.2822304E8,8.3975084E-2,-2.4139416E8,-1.123797E8,-9.021597E-1,3.5585494E8,-3.7397926E8,-3.0443633E-1,6.0840052E7,-1.1542804E8],"split_indices":[81,96,0,1097,0,23,0,34,88,0,81,0,0,0,0,0,33,0,0],"split_type":[0,0,0,0,0,0,0,0,0,0,0,0,0,0,0,0,0,0,0],"sum_hessian":[7.5E1,7.1E1,4E0,6.4E1,7E0,6E1,4E0,2.3E1,3.7E1,7E0,1.6E1,2.3E1,1.4E1,1.2E1,4E0,4E0,8E0,4E0,4E0],"tree_param":{"num_deleted":"0","num_feature":"2926","num_nodes":"19","size_leaf_vector":"1"}},{"base_weights":[-1.3776402E8,-8.51128E8,3.1652823E9,-4.2006198E8,-1.5676326E9,1.7214519E9,1.7260352E8,-6.3752736E8,2.7787184E8,-9.468553E8,-1.2963334E8,3.1242112E8,-1.5992128E8,-3.385633E8,-6.349106E7,-1.3392041E8,6.968795E7],"categories":[],"categories_nodes":[],"categories_segments":[],"categories_sizes":[],"default_left":[0,0,0,0,0,0,0,0,0,0,0,0,0,0,0,0,0],"id":7,"left_children":[1,3,5,7,-1,-1,-1,9,11,13,-1,-1,15,-1,-1,-1,-1],"loss_changes":[1.723458E20,1.1815285E20,9.226605E19,8.6766333E18,0E0,0E0,0E0,1.989209E18,5.201513E18,2.3714443E18,0E0,0E0,1.3729633E18,0E0,0E0,0E0,0E0],"parents":[2147483647,0,0,1,1,2,2,3,3,7,7,8,8,9,9,12,12],"right_children":[2,4,6,8,-1,-1,-1,10,12,14,-1,-1,16,-1,-1,-1,-1],"split_conditions":[1.2921418E-1,3.866267E-1,6.0724713E-2,-1.9521156E-1,-1.5676326E9,1.7214519E9,1.7260352E8,-1.715811E-1,-2.0105822E-1,-2.3629373E-2,-1.2963334E8,3.1242112E8,-6.929579E-1,-3.385633E8,-6.349106E7,-1.3392041E8,6.968795E7],"split_indices":[110,0,166,2023,0,0,0,1220,109,931,0,0,0,0,0,0,0],"split_type":[0,0,0,0,0,0,0,0,0,0,0,0,0,0,0,0,0],"sum_hessian":[7.1E1,5.9E1,1.2E1,5.5E1,4E0,5E0,7E0,4.2E1,1.3E1,1.4E1,2.8E1,4E0,9E0,1E1,4E0,5E0,4E0],"tree_param":{"num_deleted":"0","num_feature":"2926","num_nodes":"17","size_leaf_vector":"1"}},{"base_weights":[4.4181376E8,1.6396497E7,1.6985668E9,-3.321029E8,1.0121299E9,-9.569943E7,-8.4251136E8,-2.3098595E8,3.109556E8,3.247296E8,-5.1018294E8,-4.9472237E8,7.268542E8,-3.6446646E8,-2.9622883E8,-1.819156E8,-3.0356986E7,-2.4796054E8,-2.4850872E8,-3.1343555E8,2.1025418E7,-1.0036036E8,-5.8501816E7],"categories":[],"categories_nodes":[],"categories_segments":[],"categories_sizes":[],"default_left":[0,0,0,0,0,0,0,0,0,0,0,0,0,0,0,0,0,0,0,0,0,0,0],"id":8,"left_children":[1,3,-1,5,-1,7,-1,9,-1,11,13,15,-1,17,-1,-1,-1,-1,19,21,-1,-1,-1],"loss_changes":[1.6449614E20,8.261253E19,0E0,3.7622376E19,0E0,9.416808E18,0E0,8.2336857E18,0E0,3.4149364E19,2.3277134E18,7.1708884E17,0E0,1.4880342E18,0E0,0E0,0E0,0E0,5.464596E17,1.6376401E16,0E0,0E0,0E0],"parents":[2147483647,0,0,1,1,3,3,5,5,7,7,9,9,10,10,11,11,13,13,18,18,19,19],"right_children":[2,4,-1,6,-1,8,-1,10,-1,12,14,16,-1,18,-1,-1,-1,-1,20,22,-1,-1,-1],"split_conditions":[1.2670985E-1,1.5250947E0,1.6985668E9,4.761685E-1,1.0121299E9,3.2682127E-1,-8.4251136E8,-8.350085E-1,3.109556E8,-8.660013E-1,-2.2010612E-1,-5.242361E-1,7.268542E8,-5.1378936E-1,-2.9622883E8,-1.819156E8,-3.0356986E7,-2.4796054E8,-1.9516195E-1,7.161294E-1,2.1025418E7,-1.0036036E8,-5.8501816E7],"split_indices":[81,14,0,1035,0,973,0,0,0,0,1035,87,0,88,0,0,0,0,109,84,0,0,0],"split_type":[0,0,0,0,0,0,0,0,0,0,0,0,0,0,0,0,0,0,0,0,0,0,0],"sum_hessian":[6.9E1,6.5E1,4E0,6E1,5E0,5.6E1,4E0,5.1E1,5E0,1.7E1,3.4E1,1.3E1,4E0,2.8E1,6E0,9E0,4E0,4E0,2.4E1,2E1,4E0,1.3E1,7E0],"tree_param":{"num_deleted":"0","num_feature":"2926","num_nodes":"23","size_leaf_vector":"1"}},{"base_weights":[-2.428346E8,1.4705051E8,-1.4532308E9,-4.596359E8,2.0706607E9,-1.6204288E8,-1.03617325E9,-3.7333254E8,5.763956E8,-7.372864E8,-2.5481309E8,-2.838081E8,-4.944418E7,-3.178351E8,1.0530219E7,-4.102115E8,-1.441629E8,-2.5528646E8,-5.5510035E8,-5.184957E7,-2.7776754E7,-9.301333E7,-2.5529122E7,-2.0581264E8,-6.895096E7],"categories":[],"categories_nodes":[],"categories_segments":[],"categories_sizes":[],"default_left":[0,0,0,0,0,0,0,0,0,0,0,0,0,0,0,0,0,0,0,0,0,0,0,0,0],"id":9,"left_children":[1,3,-1,5,-1,7,-1,9,-1,11,13,-1,-1,15,-1,17,19,21,23,-1,-1,-1,-1,-1,-1],"loss_changes":[1.2780946E20,2.7584254E20,0E0,5.5272397E19,0E0,2.6177716E19,0E0,2.0120458E18,0E0,1.5852605E18,7.473985E17,0E0,0E0,4.702889E17,0E0,3.296751E17,5.237266E15,1.1288452E17,3.5072332E17,0E0,0E0,0E0,0E0,0E0,0E0],"parents":[2147483647,0,0,1,1,3,3,5,5,7,7,9,9,10,10,13,13,15,15,16,16,17,17,18,18],"right_children":[2,4,-1,6,-1,8,-1,10,-1,12,14,-1,-1,16,-1,18,20,22,24,-1,-1,-1,-1,-1,-1],"split_conditions":[2.0060036E0,-1.0389498E-1,-1.4532308E9,2.3434168E-2,2.0706607E9,3.9979646E-1,-1.03617325E9,-3.172484E-1,5.763956E8,-4.666167E-1,-1.6240488E-1,-2.838081E8,-4.944418E7,1.5472361E0,1.0530219E7,-3.3011132E-1,9.546908E-3,-3.0512625E-1,-2.806877E-1,-5.184957E7,-2.7776754E7,-9.301333E7,-2.5529122E7,-2.0581264E8,-6.895096E7],"split_indices":[0,148,0,81,0,88,0,974,0,4,109,0,0,9,0,79,0,108,1559,0,0,0,0,0,0],"split_type":[0,0,0,0,0,0,0,0,0,0,0,0,0,0,0,0,0,0,0,0,0,0,0,0,0],"sum_hessian":[6.6E1,6.2E1,4E0,5.8E1,4E0,5.4E1,4E0,5E1,4E0,1.1E1,3.9E1,7E0,4E0,3.2E1,7E0,2E1,1.2E1,1.1E1,9E0,5E0,7E0,7E0,4E0,5E0,4E0],"tree_param":{"num_deleted":"0","num_feature":"2926","num_nodes":"25","size_leaf_vector":"1"}},{"base_weights":[1.7233445E8,-2.0977491E8,1.1449244E9,-5.509666E8,1.2532739E9,-2.6869136E8,-1.1375384E9,-1.69338E8,-3.9478582E8,-2.2364258E8,9.892285E7,2.2762486E8,-3.0707226E8,-4.359393E7,1.6018794E8,-2.7354483E8,-2.2188056E8,-2.5415635E8,1.9291216E7,-1.3969971E8,-1.9442173E8,-4.509384E7,-7.3327176E7],"categories":[],"categories_nodes":[],"categories_segments":[],"categories_sizes":[],"default_left":[0,0,0,0,0,0,0,0,0,0,0,0,0,0,0,0,0,0,0,0,0,0,0],"id":10,"left_children":[1,3,-1,5,-1,7,-1,9,-1,11,-1,13,15,-1,-1,-1,17,19,-1,-1,21,-1,-1],"loss_changes":[1.1415156E20,1.1419702E20,0E0,6.4107157E19,0E0,6.7668805E18,0E0,1.7340824E18,0E0,2.1029477E18,0E0,1.2354124E18,2.3503872E18,0E0,0E0,0E0,4.0990426E17,4.4198966E17,0E0,0E0,3.1953045E16,0E0,0E0],"parents":[2147483647,0,0,1,1,3,3,5,5,7,7,9,9,11,11,12,12,16,16,17,17,20,20],"right_children":[2,4,-1,6,-1,8,-1,10,-1,12,-1,14,16,-1,-1,-1,18,20,-1,-1,22,-1,-1],"split_conditions":[7.926054E-1,1.2670985E-1,1.1449244E9,6.674862E-2,1.2532739E9,6.616893E-2,-1.1375384E9,-1.7312013E-1,-3.9478582E8,-8.763323E-1,9.892285E7,-9.099079E-1,-3.3328262E-1,-4.359393E7,1.6018794E8,-2.7354483E8,6.621608E-3,-1.715811E-1,1.9291216E7,-1.3969971E8,1.5521531E0,-4.509384E7,-7.3327176E7],"split_indices":[30,81,0,1129,0,81,0,1097,0,0,0,0,974,0,0,0,109,1220,0,0,85,0,0],"split_type":[0,0,0,0,0,0,0,0,0,0,0,0,0,0,0,0,0,0,0,0,0,0,0],"sum_hessian":[7.6E1,7E1,6E0,6.6E1,4E0,6.2E1,4E0,5.8E1,4E0,5.3E1,5E0,8E0,4.5E1,4E0,4E0,4E0,4.1E1,3.7E1,4E0,6E0,3.1E1,2.2E1,9E0],"tree_param":{"num_deleted":"0","num_feature":"2926","num_nodes":"23","size_leaf_vector":"1"}},{"base_weights":[1.605786E8,8.306908E8,-3.8137736E9,-7.3599704E7,5.8116485E9,-1.6156836E9,-5.51369E8,7.905841E8,-3.024132E8,2.972113E9,2.7957507E8,-5.1039692E7,6.2160083E8,-3.2952272E8,-1.6651773E8,6.264319E7,-2.1559405E8,-3.858198E8,-1.445625E8,-1.5406627E8,-3.47034E7,-1.6860053E8,-1.4739601E7,-3.561785E7,-5.597669E7],"categories":[],"categories_nodes":[],"categories_segments":[],"categories_sizes":[],"default_left":[0,0,0,0,0,0,0,0,0,0,0,0,0,0,0,0,0,0,0,0,0,0,0,0,0],"id":11,"left_children":[1,3,5,7,9,-1,-1,11,13,-1,-1,-1,-1,-1,15,-1,17,19,21,-1,-1,23,-1,-1,-1],"loss_changes":[2.029127E20,2.9320288E20,2.7467067E19,1.131235E19,2.1346063E20,0E0,0E0,1.6614593E19,5.0392245E18,0E0,0E0,0E0,0E0,0E0,8.064803E17,0E0,3.7951527E17,3.4451836E17,5.1474565E16,0E0,0E0,1.01739185E15,0E0,0E0,0E0],"parents":[2147483647,0,0,1,1,2,2,3,3,4,4,7,7,8,8,14,14,16,16,17,17,18,18,21,21],"right_children":[2,4,6,8,10,-1,-1,12,14,-1,-1,-1,-1,-1,16,-1,18,20,22,-1,-1,24,-1,-1,-1],"split_conditions":[4.1833937E-1,-5.9960622E-2,2.0062513E0,-3.2197517E-1,7.894228E-1,-1.6156836E9,-5.51369E8,-5.754104E-1,-5.371852E-1,2.972113E9,2.7957507E8,-5.1039692E7,6.2160083E8,-3.2952272E8,-3.436417E-1,6.264319E7,-1.715811E-1,-1.8992081E-1,7.161294E-1,-1.5406627E8,-3.47034E7,1.5521531E0,-1.4739601E7,-3.561785E7,-5.597669E7],"split_indices":[92,1129,14,108,23,0,0,88,17,0,0,0,0,0,976,0,1220,109,84,0,0,85,0,0,0],"split_type":[0,0,0,0,0,0,0,0,0,0,0,0,0,0,0,0,0,0,0,0,0,0,0,0,0],"sum_hessian":[7.4E1,6.4E1,1E1,5.5E1,9E0,4E0,6E0,1.1E1,4.4E1,4E0,5E0,7E0,4E0,5E0,3.9E1,4E0,3.5E1,9E0,2.6E1,5E0,4E0,2E1,6E0,1E1,1E1],"tree_param":{"num_deleted":"0","num_feature":"2926","num_nodes":"25","size_leaf_vector":"1"}},{"base_weights":[5.261787E6,3.3875187E8,-1.1059208E9,8.2478125E6,1.099211E9,1.2131863E9,-3.463076E8,-1.4913593E7,1.0450338E9,-1.5856264E8,-5.810421E8,5.72153E7,-8.9438024E7,-1.5375174E8,-7.825084E7,-1.26220504E8,8.047001E7,-3.8050916E7,-1.9485362E8,2.9788232E6,-1.862983E7,-2.2134942E8,-2.0231648E7,-3.294939E7,-2.9058746E8,-4.4092176E7,-1.0475254E8],"categories":[],"categories_nodes":[],"categories_segments":[],"categories_sizes":[],"default_left":[0,0,0,0,0,0,0,0,0,0,0,0,0,0,0,0,0,0,0,0,0,0,0,0,0,0,0],"id":12,"left_children":[1,3,-1,5,-1,7,9,11,-1,13,-1,-1,-1,-1,15,17,-1,19,21,-1,-1,23,-1,-1,25,-1,-1],"loss_changes":[9.865212E19,8.149694E19,0E0,2.818927E19,0E0,4.5356596E19,1.5911033E19,7.7444074E17,0E0,1.3986526E18,0E0,0E0,0E0,0E0,7.2843546E17,2.1043436E17,0E0,2.3298956E16,4.9843886E16,0E0,0E0,8.329536E16,0E0,0E0,3.7604054E16,0E0,0E0],"parents":[2147483647,0,0,1,1,3,3,5,5,6,6,7,7,9,9,14,14,15,15,17,17,18,18,21,21,24,24],"right_children":[2,4,-1,6,-1,8,10,12,-1,14,-1,-1,-1,-1,16,18,-1,20,22,-1,-1,24,-1,-1,26,-1,-1],"split_conditions":[2.0060036E0,1.9416206E-2,-1.1059208E9,-8.29843E-1,1.099211E9,-5.371852E-1,5.488153E-1,-9.0732515E-1,1.0450338E9,-4.0776703E-1,-5.810421E8,5.72153E7,-8.9438024E7,-1.5375174E8,6.5969926E-1,-2.6506668E-1,8.047001E7,9.546908E-3,-1.4689268E-1,2.9788232E6,-1.862983E7,-3.5732916E-1,-2.0231648E7,-3.294939E7,-4.0110847E-1,-4.4092176E7,-1.0475254E8],"split_indices":[0,108,0,0,0,17,105,0,0,380,0,0,0,0,49,38,0,0,79,0,0,92,0,0,0,0,0],"split_type":[0,0,0,0,0,0,0,0,0,0,0,0,0,0,0,0,0,0,0,0,0,0,0,0,0,0,0],"sum_hessian":[7.4E1,6.9E1,5E0,6.4E1,5E0,1.4E1,5E1,1E1,4E0,4.6E1,4E0,6E0,4E0,7E0,3.9E1,3.5E1,4E0,1.6E1,1.9E1,6E0,1E1,1.5E1,4E0,7E0,8E0,4E0,4E0],"tree_param":{"num_deleted":"0","num_feature":"2926","num_nodes":"27","size_leaf_vector":"1"}},{"base_weights":[-2.5720066E8,1.4734027E8,-8.026324E8,-5.569874E8,2.953317E9,-1.6233662E8,-1.2049229E9,2.3767593E9,-3.7421194E8,-3.9555085E8,-7.361103E7,-3.813305E7,-1.5354578E8,4.009686E7,-2.9734374E8,4.796587E7,-1.1810782E8,-5.5149364E7,-8.795554E7,-7.6277355E6,-9.884546E7,-3.41332E7,-1.6996006E7],"categories":[],"categories_nodes":[],"categories_segments":[],"categories_sizes":[],"default_left":[0,0,0,0,0,0,0,0,0,0,0,0,0,0,0,0,0,0,0,0,0,0,0],"id":13,"left_children":[1,3,-1,5,7,9,-1,-1,11,13,15,-1,-1,-1,-1,-1,17,-1,19,-1,21,-1,-1],"loss_changes":[7.611488E19,1.281299E20,0E0,7.477657E19,2.3666997E20,9.641025E17,0E0,0E0,2.851938E17,4.675745E18,4.078342E17,0E0,0E0,0E0,0E0,0E0,5.370623E16,0E0,1.333273E16,0E0,9.346416E15,0E0,0E0],"parents":[2147483647,0,0,1,1,3,3,4,4,5,5,8,8,9,9,10,10,16,16,18,18,20,20],"right_children":[2,4,-1,6,8,10,-1,-1,12,14,16,-1,-1,-1,-1,-1,18,-1,20,-1,22,-1,-1],"split_conditions":[8.082397E-1,-3.1949404E-1,-8.026324E8,8.3975084E-2,-4.8139817E-1,-5.371852E-1,-1.2049229E9,2.3767593E9,3.7887847E-1,-9.021597E-1,-3.1693256E-1,-3.813305E7,-1.5354578E8,4.009686E7,-2.9734374E8,4.796587E7,-9.910311E-3,-5.5149364E7,-8.0540664E-2,-7.6277355E6,7.161294E-1,-3.41332E7,-1.6996006E7],"split_indices":[92,124,0,81,378,17,0,0,0,0,976,0,0,0,0,0,153,0,398,0,84,0,0],"split_type":[0,0,0,0,0,0,0,0,0,0,0,0,0,0,0,0,0,0,0,0,0,0,0],"sum_hessian":[7.2E1,6.3E1,9E0,5.1E1,1.2E1,4.7E1,4E0,4E0,8E0,1.2E1,3.5E1,4E0,4E0,7E0,5E0,5E0,3E1,7E0,2.3E1,4E0,1.9E1,1.1E1,8E0],"tree_param":{"num_deleted":"0","num_feature":"2926","num_nodes":"23","size_leaf_vector":"1"}},{"base_weights":[-1.02443736E8,1.9083027E8,-1.9060973E9,-6.359908E7,9.701902E8,-7.4844774E8,-2.4597381E8,5.3667347E8,-1.9830986E8,5.114346E8,-9.0567544E7,-4.3824845E8,6.771285E7,-2.0034066E8,-4.2473174E8,-4.0110376E7,1.5041979E8,-1.3756574E8,-7.912348E7,-6.811793E6,-1.3557396E7,5.8680505E6,-3.1044756E7],"categories":[],"categories_nodes":[],"categories_segments":[],"categories_sizes":[],"default_left":[0,0,0,0,0,0,0,0,0,0,0,0,0,0,0,0,0,0,0,0,0,0,0],"id":14,"left_children":[1,3,5,7,-1,-1,-1,9,11,-1,-1,13,15,17,-1,19,-1,-1,21,-1,-1,-1,-1],"loss_changes":[4.162299E19,5.5901243E19,6.023195E18,5.281671E18,0E0,0E0,0E0,1.3504476E19,3.412618E18,0E0,0E0,6.7241656E18,1.3132337E18,7.852932E17,0E0,1.5394473E15,0E0,0E0,5.6060232E16,0E0,0E0,0E0,0E0],"parents":[2147483647,0,0,1,1,2,2,3,3,7,7,8,8,11,11,12,12,13,13,15,15,18,18],"right_children":[2,4,6,8,-1,-1,-1,10,12,-1,-1,14,16,18,-1,20,-1,-1,22,-1,-1,-1,-1],"split_conditions":[1.2159535E0,1.01781234E-1,4.4988686E-1,-3.2197517E-1,9.701902E8,-7.4844774E8,-2.4597381E8,2.9807818E-1,-9.2769384E-2,5.114346E8,-9.0567544E7,-1.8897468E-1,2.600725E-1,-4.1857392E-1,-4.2473174E8,9.546908E-3,1.5041979E8,-1.3756574E8,-6.2064123E-1,-6.811793E6,-1.3557396E7,5.8680505E6,-3.1044756E7],"split_indices":[1041,81,105,108,0,0,0,34,974,0,0,974,0,92,0,0,0,0,0,0,0,0,0],"split_type":[0,0,0,0,0,0,0,0,0,0,0,0,0,0,0,0,0,0,0,0,0,0,0],"sum_hessian":[7.7E1,6.7E1,1E1,6.3E1,4E0,5E0,5E0,1.1E1,5.2E1,4E0,7E0,2.7E1,2.5E1,2.3E1,4E0,2.1E1,4E0,6E0,1.7E1,8E0,1.3E1,4E0,1.3E1],"tree_param":{"num_deleted":"0","num_feature":"2926","num_nodes":"23","size_leaf_vector":"1"}}]},"name":"gbtree"},"learner_model_param":{"base_score":"5.2220324E9","boost_from_average":"1","num_class":"0","num_feature":"2926","num_target":"1"},"objective":{"name":"reg:squarederror","reg_loss_param":{"scale_pos_weight":"1"}}},"version":[2,0,3]}