{"learner":{"attributes":{"best_iteration":"42","best_score":"912423991.7258763","scikit_learn":"{\"_estimator_type\": \"regressor\"}"},"feature_names":[],"feature_types":[],"gradient_booster":{"model":{"gbtree_model_param":{"num_parallel_tree":"1","num_trees":"53"},"iteration_indptr":[0,1,2,3,4,5,6,7,8,9,10,11,12,13,14,15,16,17,18,19,20,21,22,23,24,25,26,27,28,29,30,31,32,33,34,35,36,37,38,39,40,41,42,43,44,45,46,47,48,49,50,51,52,53],"tree_info":[0,0,0,0,0,0,0,0,0,0,0,0,0,0,0,0,0,0,0,0,0,0,0,0,0,0,0,0,0,0,0,0,0,0,0,0,0,0,0,0,0,0,0,0,0,0,0,0,0,0,0,0,0],"trees":[{"base_weights":[-5.822997E8,3.5058627E9,-8.1118906E8,2.16756E9,-1.2068219E7],"categories":[],"categories_nodes":[],"categories_segments":[],"categories_sizes":[],"default_left":[0,0,0,0,0],"id":0,"left_children":[1,3,-1,-1,-1],"loss_changes":[6.138523E20,3.777877E20,0E0,0E0,0E0],"parents":[2147483647,0,0,1,1],"right_children":[2,4,-1,-1,-1],"split_conditions":[-3.7726393E-1,-1.613957E-1,-8.1118906E8,2.16756E9,-1.2068219E7],"split_indices":[98,868,0,0,0],"split_type":[0,0,0,0,0],"sum_hessian":[5.9E1,2.2E1,3.7E1,9E0,1.3E1],"tree_param":{"num_deleted":"0","num_feature":"2926","num_nodes":"5","size_leaf_vector":"1"}},{"base_weights":[-2.9975024E8,-1.907008E9,1.7068815E9,5.115849E8,-2.517513E9,-1.11618E9,-1.9537647E9,-6.236333E8,-2.5552378E8],"categories":[],"categories_nodes":[],"categories_segments":[],"categories_sizes":[],"default_left":[0,0,0,0,0,0,0,0,0],"id":1,"left_children":[1,3,-1,-1,5,-1,7,-1,-1],"loss_changes":[7.2286546E20,1.3093167E20,0E0,0E0,3.600283E19,0E0,1.1922823E19,0E0,0E0],"parents":[2147483647,0,0,1,1,4,4,6,6],"right_children":[2,4,-1,-1,6,-1,8,-1,-1],"split_conditions":[-1.8689078E-1,-2.927002E-1,1.7068815E9,5.115849E8,7.9520625E-1,-1.11618E9,-9.391302E-3,-6.236333E8,-2.5552378E8],"split_indices":[124,90,0,0,23,0,0,0,0],"split_type":[0,0,0,0,0,0,0,0,0],"sum_hessian":[6.5E1,5.3E1,1.2E1,7E0,4.6E1,1E1,3.6E1,2.5E1,1.1E1],"tree_param":{"num_deleted":"0","num_feature":"2926","num_nodes":"9","size_leaf_vector":"1"}},{"base_weights":[-3.993252E8,-1.493916E9,2.1693842E9,9.787233E8,-2.3038802E9,9.4783354E8,-5.442293E8,-4.583918E8,-1.0315495E9],"categories":[],"categories_nodes":[],"categories_segments":[],"categories_sizes":[],"default_left":[0,0,0,0,0,0,0,0,0],"id":2,"left_children":[1,3,-1,5,7,-1,-1,-1,-1],"loss_changes":[6.566206E20,1.264253E20,0E0,1.3164178E20,3.6364192E19,0E0,0E0,0E0,0E0],"parents":[2147483647,0,0,1,1,3,3,4,4],"right_children":[2,4,-1,6,8,-1,-1,-1,-1],"split_conditions":[1.439375E0,-4.5698518E-1,2.1693842E9,-1.26391E-1,-2.5168076E-1,9.4783354E8,-5.442293E8,-4.583918E8,-1.0315495E9],"split_indices":[0,89,0,1114,89,0,0,0,0],"split_type":[0,0,0,0,0,0,0,0,0],"sum_hessian":[6.8E1,6.1E1,7E0,1.5E1,4.6E1,8E0,7E0,3.5E1,1.1E1],"tree_param":{"num_deleted":"0","num_feature":"2926","num_nodes":"9","size_leaf_vector":"1"}},{"base_weights":[-8.570893E7,-1.4008042E9,1.2314789E9,-1.8271515E9,2.708718E7,-9.814464E8,-1.230364E9,-3.92431E8,-2.6691098E8],"categories":[],"categories_nodes":[],"categories_segments":[],"categories_sizes":[],"default_left":[0,0,0,0,0,0,0,0,0],"id":3,"left_children":[1,3,-1,5,-1,-1,7,-1,-1],"loss_changes":[3.96107E20,3.2211952E19,0E0,3.859095E19,0E0,0E0,2.4302725E17,0E0,0E0],"parents":[2147483647,0,0,1,1,3,3,6,6],"right_children":[2,4,-1,6,-1,-1,8,-1,-1],"split_conditions":[2.1744443E-1,-2.3228142E-1,1.2314789E9,7.9520625E-1,2.708718E7,-9.814464E8,-1.7957246E-1,-3.92431E8,-2.6691098E8],"split_indices":[1723,109,0,23,0,0,88,0,0],"split_type":[0,0,0,0,0,0,0,0,0],"sum_hessian":[6.2E1,4.9E1,1.3E1,3.8E1,1.1E1,8E0,3E1,1.2E1,1.8E1],"tree_param":{"num_deleted":"0","num_feature":"2926","num_nodes":"9","size_leaf_vector":"1"}},{"base_weights":[1.1323997E9,-4.6308906E8,3.243079E9,8.9144557E8,-1.4675675E9,-9.751464E8,-9.6634656E8,-5.5729594E8,-1.6225558E8],"categories":[],"categories_nodes":[],"categories_segments":[],"categories_sizes":[],"default_left":[0,0,0,0,0,0,0,0,0],"id":4,"left_children":[1,3,-1,-1,5,7,-1,-1,-1],"loss_changes":[1.11400555E21,2.1896095E20,0E0,0E0,4.423175E19,1.4260826E19,0E0,0E0,0E0],"parents":[2147483647,0,0,1,1,4,4,5,5],"right_children":[2,4,-1,-1,6,8,-1,-1,-1],"split_conditions":[5.5058014E-1,-7.736821E-1,3.243079E9,8.9144557E8,3.4856766E-1,-5.805186E-1,-9.6634656E8,-5.5729594E8,-1.6225558E8],"split_indices":[179,0,0,0,0,391,0,0,0],"split_type":[0,0,0,0,0,0,0,0,0],"sum_hessian":[6.2E1,5.5E1,7E0,1.1E1,4.4E1,3.7E1,7E0,8E0,2.9E1],"tree_param":{"num_deleted":"0","num_feature":"2926","num_nodes":"9","size_leaf_vector":"1"}},{"base_weights":[-4.7713277E8,-1.3213742E9,1.4367137E9,-5.8795846E8,-1.04031475E9,-1.0551426E9,1.5616718E8,1.0283081E9,-2.2284424E8],"categories":[],"categories_nodes":[],"categories_segments":[],"categories_sizes":[],"default_left":[0,0,0,0,0,0,0,0,0],"id":5,"left_children":[1,3,-1,5,-1,-1,7,-1,-1],"loss_changes":[3.140466E20,1.0174115E20,0E0,1.108941E20,0E0,0E0,1.3895492E20,0E0,0E0],"parents":[2147483647,0,0,1,1,3,3,6,6],"right_children":[2,4,-1,6,-1,-1,8,-1,-1],"split_conditions":[1.8887526E0,-2.0687199E-1,1.4367137E9,-8.3898544E-1,-1.04031475E9,-1.0551426E9,-7.519143E-1,1.0283081E9,-2.2284424E8],"split_indices":[1909,113,0,0,0,0,0,0,0],"split_type":[0,0,0,0,0,0,0,0,0],"sum_hessian":[6.1E1,5.4E1,7E0,4.3E1,1.1E1,7E0,3.6E1,7E0,2.9E1],"tree_param":{"num_deleted":"0","num_feature":"2926","num_nodes":"9","size_leaf_vector":"1"}},{"base_weights":[1.3491511E7,-8.0970784E8,1.5400749E9,1.4538509E8,-1.0615438E9,5.761906E8,-6.777218E8,-4.386161E8,-9.101515E7],"categories":[],"categories_nodes":[],"categories_segments":[],"categories_sizes":[],"default_left":[0,0,0,0,0,0,0,0,0],"id":6,"left_children":[1,3,-1,5,-1,-1,7,-1,-1],"loss_changes":[3.0343477E20,1.7014476E20,0E0,7.443805E19,0E0,0E0,9.848466E18,0E0,0E0],"parents":[2147483647,0,0,1,1,3,3,6,6],"right_children":[2,4,-1,6,-1,-1,8,-1,-1],"split_conditions":[1.5485574E0,6.169568E-1,1.5400749E9,-3.5517097E-1,-1.0615438E9,5.761906E8,-3.5123563E-1,-4.386161E8,-9.101515E7],"split_indices":[124,14,0,76,0,0,101,0,0],"split_type":[0,0,0,0,0,0,0,0,0],"sum_hessian":[6.2E1,5.5E1,7E0,4.3E1,1.2E1,1.2E1,3.1E1,7E0,2.4E1],"tree_param":{"num_deleted":"0","num_feature":"2926","num_nodes":"9","size_leaf_vector":"1"}},{"base_weights":[-2.941404E8,6.282511E8,-3.1646912E9,2.9164093E9,-6.468116E8,-4.2478886E8,-1.1578528E9,-9.953834E7,1.7773641E9,-3.253203E8,-4.0819203E8,-4.591409E7,-1.0088979E8],"categories":[],"categories_nodes":[],"categories_segments":[],"categories_sizes":[],"default_left":[0,0,0,0,0,0,0,0,0,0,0,0,0],"id":7,"left_children":[1,3,5,7,9,-1,-1,-1,-1,11,-1,-1,-1],"loss_changes":[1.6350229E20,1.3901101E20,2.0827143E19,2.1205739E20,8.3085025E18,0E0,0E0,0E0,0E0,1.2952137E17,0E0,0E0,0E0],"parents":[2147483647,0,0,1,1,2,2,3,3,4,4,9,9],"right_children":[2,4,6,8,10,-1,-1,-1,-1,12,-1,-1,-1],"split_conditions":[-1.5505724E-1,-4.4332606E-1,-2.2620516E-1,-5.446984E-1,-1.4488675E-1,-4.2478886E8,-1.1578528E9,-9.953834E7,1.7773641E9,-7.5593784E-2,-4.0819203E8,-4.591409E7,-1.0088979E8],"split_indices":[2023,98,124,110,382,0,0,0,0,388,0,0,0],"split_type":[0,0,0,0,0,0,0,0,0,0,0,0,0],"sum_hessian":[6E1,4.6E1,1.4E1,1.6E1,3E1,7E0,7E0,9E0,7E0,2.3E1,7E0,7E0,1.6E1],"tree_param":{"num_deleted":"0","num_feature":"2926","num_nodes":"13","size_leaf_vector":"1"}},{"base_weights":[-2.8020566E8,5.36319E8,-1.2279283E9,-5.2879373E8,1.5810908E9,-7.6647456E8,3.8511588E7,2.609789E8,-1.2097868E8],"categories":[],"categories_nodes":[],"categories_segments":[],"categories_sizes":[],"default_left":[0,0,0,0,0,0,0,0,0],"id":8,"left_children":[1,3,-1,5,-1,-1,7,-1,-1],"loss_changes":[2.0017035E20,2.7878566E20,0E0,5.4653046E19,0E0,0E0,1.6170845E19,0E0,0E0],"parents":[2147483647,0,0,1,1,3,3,6,6],"right_children":[2,4,-1,6,-1,-1,8,-1,-1],"split_conditions":[-1.3170232E-1,-1.9063501E-1,-1.2279283E9,-2.8410032E-1,1.5810908E9,-7.6647456E8,-2.7064013E-1,2.609789E8,-1.2097868E8],"split_indices":[1035,124,0,1230,0,0,1113,0,0],"split_type":[0,0,0,0,0,0,0,0,0],"sum_hessian":[5.5E1,4.7E1,8E0,4E1,7E0,7E0,3.3E1,1.1E1,2.2E1],"tree_param":{"num_deleted":"0","num_feature":"2926","num_nodes":"9","size_leaf_vector":"1"}},{"base_weights":[-9.948956E8,-3.9480054E8,-1.0539315E9,-1.4735192E9,5.7026394E8,-7.487539E8,-8.913257E7,7.214538E8,-4.10165E8,-2.5098554E7,-1.6076106E8],"categories":[],"categories_nodes":[],"categories_segments":[],"categories_sizes":[],"default_left":[0,0,0,0,0,0,0,0,0,0,0],"id":9,"left_children":[1,3,-1,5,7,-1,-1,-1,9,-1,-1],"loss_changes":[9.424924E19,4.8727813E19,0E0,3.2493594E19,5.3432074E19,0E0,0E0,0E0,1.0388733E18,0E0,0E0],"parents":[2147483647,0,0,1,1,3,3,4,4,8,8],"right_children":[2,4,-1,6,8,-1,-1,-1,10,-1,-1],"split_conditions":[8.0237734E-1,-4.9611008E-1,-1.0539315E9,-7.5433296E-1,-2.0401827E-1,-7.487539E8,-8.913257E7,7.214538E8,-3.3752096E-1,-2.5098554E7,-1.6076106E8],"split_indices":[96,35,0,0,974,0,0,0,89,0,0],"split_type":[0,0,0,0,0,0,0,0,0,0,0],"sum_hessian":[5.3E1,4.5E1,8E0,2.1E1,2.4E1,9E0,1.2E1,7E0,1.7E1,7E0,1E1],"tree_param":{"num_deleted":"0","num_feature":"2926","num_nodes":"11","size_leaf_vector":"1"}},{"base_weights":[2.8106146E7,6.6250144E8,-2.2575908E9,2.5907087E9,-2.9345078E8,-9.821237E8,-1.4688275E8,1.361426E9,1.4057451E8,-1.0774986E8,-2.09124E8,-8.622239E6,-7.795196E7],"categories":[],"categories_nodes":[],"categories_segments":[],"categories_sizes":[],"default_left":[0,0,0,0,0,0,0,0,0,0,0,0,0],"id":10,"left_children":[1,3,5,7,9,-1,-1,-1,-1,11,-1,-1,-1],"loss_changes":[1.0009807E20,1.0029705E20,3.4448693E19,9.06824E19,3.286518E18,0E0,0E0,0E0,0E0,3.8021686E17,0E0,0E0,0E0],"parents":[2147483647,0,0,1,1,2,2,3,3,4,4,9,9],"right_children":[2,4,6,8,10,-1,-1,-1,-1,12,-1,-1,-1],"split_conditions":[-2.084755E-1,7.9520625E-1,7.9520625E-1,-2.333892E-1,-1.7474498E-1,-9.821237E8,-1.4688275E8,1.361426E9,1.4057451E8,3.1279027E-2,-2.09124E8,-8.622239E6,-7.795196E7],"split_indices":[1113,23,23,115,14,0,0,0,0,144,0,0,0],"split_type":[0,0,0,0,0,0,0,0,0,0,0,0,0],"sum_hessian":[6.7E1,5.3E1,1.4E1,1.7E1,3.6E1,7E0,7E0,7E0,1E1,2.7E1,9E0,2E1,7E0],"tree_param":{"num_deleted":"0","num_feature":"2926","num_nodes":"13","size_leaf_vector":"1"}},{"base_weights":[2.38483E8,-2.1680818E8,7.85142E8,3.210914E8,-5.1688598E8,-7.4337594E8,1.0746642E9,-3.5476698E8,-6.6430556E7,8.921827E8,-1.0975369E8],"categories":[],"categories_nodes":[],"categories_segments":[],"categories_sizes":[],"default_left":[0,0,0,0,0,0,0,0,0,0,0],"id":11,"left_children":[1,3,-1,5,-1,7,9,-1,-1,-1,-1],"loss_changes":[7.700214E19,5.061583E19,0E0,3.448933E19,0E0,4.8893534E18,8.573096E19,0E0,0E0,0E0,0E0],"parents":[2147483647,0,0,1,1,3,3,5,5,6,6],"right_children":[2,4,-1,6,-1,8,10,-1,-1,-1,-1],"split_conditions":[1.8168168E0,-2.5168076E-1,7.85142E8,-3.1426498E-1,-5.1688598E8,1.0950053E0,-2.597138E-1,-3.5476698E8,-6.6430556E7,8.921827E8,-1.0975369E8],"split_indices":[403,89,0,930,0,85,182,0,0,0,0],"split_type":[0,0,0,0,0,0,0,0,0,0,0],"sum_hessian":[6.1E1,5.3E1,8E0,4.1E1,1.2E1,1.7E1,2.4E1,7E0,1E1,9E0,1.5E1],"tree_param":{"num_deleted":"0","num_feature":"2926","num_nodes":"11","size_leaf_vector":"1"}},{"base_weights":[-3.152185E8,-7.5249824E8,3.1807206E8,-1.1079551E9,3.4581846E8,-2.2520573E9,-3.0418483E8,-8.9551296E8,-2.7522806E8,-1.6587838E8,-3.671763E7],"categories":[],"categories_nodes":[],"categories_segments":[],"categories_sizes":[],"default_left":[0,0,0,0,0,0,0,0,0,0,0],"id":12,"left_children":[1,3,-1,5,-1,7,9,-1,-1,-1,-1],"loss_changes":[4.3752893E19,3.8582795E19,0E0,3.9777155E19,0E0,2.0814723E19,1.3429616E18,0E0,0E0,0E0,0E0],"parents":[2147483647,0,0,1,1,3,3,5,5,6,6],"right_children":[2,4,-1,6,-1,8,10,-1,-1,-1,-1],"split_conditions":[1.0230132E0,1.778889E0,3.1807206E8,7.9520625E-1,3.4581846E8,-2.8166094E-1,4.5139626E-1,-8.9551296E8,-2.7522806E8,-1.6587838E8,-3.671763E7],"split_indices":[35,516,0,23,0,985,1743,0,0,0,0],"split_type":[0,0,0,0,0,0,0,0,0,0,0],"sum_hessian":[6.4E1,5E1,1.4E1,4.3E1,7E0,1.7E1,2.6E1,8E0,9E0,8E0,1.8E1],"tree_param":{"num_deleted":"0","num_feature":"2926","num_nodes":"11","size_leaf_vector":"1"}},{"base_weights":[-3.936444E7,-3.5608384E8,5.715741E8,6.5162276E7,-4.9902112E8,3.59575E8,-3.4796957E8,5.2756115E8,-6.168362E7],"categories":[],"categories_nodes":[],"categories_segments":[],"categories_sizes":[],"default_left":[0,0,0,0,0,0,0,0,0],"id":13,"left_children":[1,3,-1,5,-1,7,-1,-1,-1],"loss_changes":[4.3617354E19,3.5219831E19,0E0,1.821378E19,0E0,3.5837942E19,0E0,0E0,0E0],"parents":[2147483647,0,0,1,1,3,3,5,5],"right_children":[2,4,-1,6,-1,8,-1,-1,-1],"split_conditions":[1.8484522E0,2.438787E-1,5.715741E8,-1.5505724E-1,-4.9902112E8,7.9520625E-1,-3.4796957E8,5.2756115E8,-6.168362E7],"split_indices":[379,911,0,2029,0,23,0,0,0],"split_type":[0,0,0,0,0,0,0,0,0],"sum_hessian":[6.1E1,5.4E1,7E0,4.3E1,1.1E1,3.6E1,7E0,9E0,2.7E1],"tree_param":{"num_deleted":"0","num_feature":"2926","num_nodes":"9","size_leaf_vector":"1"}},{"base_weights":[4.598053E8,2.2770862E7,9.232582E8,4.4822205E8,-5.1749043E8,-4.8838368E8,-1.649206E8,2.0782669E6,-1.4468214E8],"categories":[],"categories_nodes":[],"categories_segments":[],"categories_sizes":[],"default_left":[0,0,0,0,0,0,0,0,0],"id":14,"left_children":[1,3,-1,-1,5,-1,7,-1,-1],"loss_changes":[8.25693E19,5.102419E19,0E0,0E0,1.961294E19,0E0,2.28641E18,0E0,0E0],"parents":[2147483647,0,0,1,1,4,4,6,6],"right_children":[2,4,-1,-1,6,-1,8,-1,-1],"split_conditions":[1.9155053E0,-9.0778327E-1,9.232582E8,4.4822205E8,-2.7457663E-1,-4.8838368E8,-2.0442425E-1,2.0782669E6,-1.4468214E8],"split_indices":[379,4,0,0,90,0,90,0,0],"split_type":[0,0,0,0,0,0,0,0,0],"sum_hessian":[6.2E1,5.5E1,7E0,1.3E1,4.2E1,8E0,3.4E1,2.4E1,1E1],"tree_param":{"num_deleted":"0","num_feature":"2926","num_nodes":"9","size_leaf_vector":"1"}},{"base_weights":[2.3331582E8,9.993618E8,-7.1323456E8,2.2456602E9,-5.1017306E8,-2.8896205E8,-5.0593405E8,1.3850333E9,1.0698444E8,-6.051002E8,2.9966134E8,-1.4638917E8,-9.643484E7,-3.5103296E7,-1.3123143E7],"categories":[],"categories_nodes":[],"categories_segments":[],"categories_sizes":[],"default_left":[0,0,0,0,0,0,0,0,0,0,0,0,0,0,0],"id":15,"left_children":[1,3,5,7,9,11,-1,-1,-1,-1,-1,-1,13,-1,-1],"loss_changes":[5.0019656E19,7.263624E19,1.501994E19,1.1207975E20,5.426105E19,1.1479538E18,0E0,0E0,0E0,0E0,0E0,0E0,1.8447297E16,0E0,0E0],"parents":[2147483647,0,0,1,1,2,2,3,3,4,4,5,5,12,12],"right_children":[2,4,6,8,10,12,-1,-1,-1,-1,-1,-1,14,-1,-1],"split_conditions":[5.898058E-2,4.0684295E-1,2.226726E-1,-6.698247E-1,-8.3898544E-1,-3.140841E-1,-5.0593405E8,1.3850333E9,1.0698444E8,-6.051002E8,2.9966134E8,-1.4638917E8,-9.391302E-3,-3.5103296E7,-1.3123143E7],"split_indices":[731,34,92,98,0,4,0,0,0,0,0,0,0,0,0],"split_type":[0,0,0,0,0,0,0,0,0,0,0,0,0,0,0],"sum_hessian":[6.7E1,3.7E1,3E1,2E1,1.7E1,2.3E1,7E0,7E0,1.3E1,8E0,9E0,9E0,1.4E1,7E0,7E0],"tree_param":{"num_deleted":"0","num_feature":"2926","num_nodes":"15","size_leaf_vector":"1"}},{"base_weights":[-1.8863286E8,5.879083E8,-6.7184166E8,1.06817165E9,-2.7054452E7,-4.904287E8,-2.6250878E8,5.3666064E8,2.9455494E7,-4.355342E7,-2.5106032E8,2.228745E7,-9.0686056E7],"categories":[],"categories_nodes":[],"categories_segments":[],"categories_sizes":[],"default_left":[0,0,0,0,0,0,0,0,0,0,0,0,0],"id":16,"left_children":[1,3,5,7,-1,-1,9,-1,-1,11,-1,-1,-1],"loss_changes":[2.6285956E19,9.0471445E18,2.0056669E19,1.4242325E19,0E0,0E0,4.863628E18,0E0,0E0,1.0082006E18,0E0,0E0,0E0],"parents":[2147483647,0,0,1,1,2,2,3,3,6,6,9,9],"right_children":[2,4,6,8,-1,-1,10,-1,-1,12,-1,-1,-1],"split_conditions":[-3.5082212E-1,4.0684295E-1,-2.409867E-1,-6.6242456E-1,-2.7054452E7,-4.904287E8,1.5861806E-2,5.3666064E8,2.9455494E7,-8.6454296E-4,-2.5106032E8,2.228745E7,-9.0686056E7],"split_indices":[108,34,162,0,0,0,5,0,0,1118,0,0,0],"split_type":[0,0,0,0,0,0,0,0,0,0,0,0,0],"sum_hessian":[6.8E1,2.6E1,4.2E1,1.5E1,1.1E1,1E1,3.2E1,7E0,8E0,2.5E1,7E0,1.8E1,7E0],"tree_param":{"num_deleted":"0","num_feature":"2926","num_nodes":"13","size_leaf_vector":"1"}},{"base_weights":[-2.8012096E8,1.5541506E8,-6.132155E8,-2.1602072E8,5.316106E8,-5.5351776E8,1.4069643E8,-3.8618198E8,-4.9726172E7],"categories":[],"categories_nodes":[],"categories_segments":[],"categories_sizes":[],"default_left":[0,0,0,0,0,0,0,0,0],"id":17,"left_children":[1,3,-1,5,-1,7,-1,-1,-1],"loss_changes":[4.960094E19,3.2513084E19,0E0,1.0329605E19,0E0,8.9228365E18,0E0,0E0,0E0],"parents":[2147483647,0,0,1,1,3,3,5,5],"right_children":[2,4,-1,6,-1,8,-1,-1,-1],"split_conditions":[-1.8336965E-1,1.288385E0,-6.132155E8,1.8081014E0,5.316106E8,-1.9822791E-1,1.4069643E8,-3.8618198E8,-4.9726172E7],"split_indices":[73,403,0,10,0,974,0,0,0],"split_type":[0,0,0,0,0,0,0,0,0],"sum_hessian":[5.5E1,4.6E1,9E0,3.9E1,7E0,2.7E1,1.2E1,7E0,2E1],"tree_param":{"num_deleted":"0","num_feature":"2926","num_nodes":"9","size_leaf_vector":"1"}},{"base_weights":[-3.3496266E8,-2.7189694E7,-7.246167E8,2.5992242E8,-8.193709E8,5.7472934E8,-1.2555757E8,-4.3031418E8,-2.7266266E7,1.4208652E7,-6.587826E7],"categories":[],"categories_nodes":[],"categories_segments":[],"categories_sizes":[],"default_left":[0,0,0,0,0,0,0,0,0,0,0],"id":18,"left_children":[1,3,-1,5,7,-1,9,-1,-1,-1,-1],"loss_changes":[5.1240787E19,1.4541997E19,0E0,3.4601695E19,9.515109E18,0E0,8.81841E17,0E0,0E0,0E0,0E0],"parents":[2147483647,0,0,1,1,3,3,4,4,6,6],"right_children":[2,4,-1,6,8,-1,10,-1,-1,-1,-1],"split_conditions":[2.632218E0,4.0684295E-1,-7.246167E8,-6.648432E-1,-8.051244E-1,5.7472934E8,-2.3903154E-2,-4.3031418E8,-2.7266266E7,1.4208652E7,-6.587826E7],"split_indices":[6,40,0,0,0,0,0,0,0,0,0],"split_type":[0,0,0,0,0,0,0,0,0,0,0],"sum_hessian":[6.9E1,6.2E1,7E0,4.6E1,1.6E1,7E0,3.9E1,7E0,9E0,1.6E1,2.3E1],"tree_param":{"num_deleted":"0","num_feature":"2926","num_nodes":"11","size_leaf_vector":"1"}},{"base_weights":[8.0681016E7,-1.919687E8,4.9151034E8,-5.1947152E8,4.4654506E8,-5.3222458E8,-1.9506491E8,2.4541482E7,-3.4222666E8],"categories":[],"categories_nodes":[],"categories_segments":[],"categories_sizes":[],"default_left":[0,0,0,0,0,0,0,0,0],"id":19,"left_children":[1,3,-1,5,-1,-1,7,-1,-1],"loss_changes":[2.8700103E19,3.2651366E19,0E0,2.1157805E19,0E0,0E0,1.1987519E19,0E0,0E0],"parents":[2147483647,0,0,1,1,3,3,6,6],"right_children":[2,4,-1,6,-1,-1,8,-1,-1],"split_conditions":[1.9644101E-1,2.632218E0,4.9151034E8,-2.9249656E-1,4.4654506E8,-5.3222458E8,9.309165E-1,2.4541482E7,-3.4222666E8],"split_indices":[329,6,0,90,0,0,403,0,0],"split_type":[0,0,0,0,0,0,0,0,0],"sum_hessian":[5.8E1,5.1E1,7E0,4.4E1,7E0,7E0,3.7E1,3E1,7E0],"tree_param":{"num_deleted":"0","num_feature":"2926","num_nodes":"9","size_leaf_vector":"1"}},{"base_weights":[-2.312041E8,-5.3516956E7,-4.212465E8,-8.222628E8,3.602861E8,-4.9977126E8,-2.3350192E7,4.619757E8,-2.4758642E7,-2.9259818E7,2.6234254E7],"categories":[],"categories_nodes":[],"categories_segments":[],"categories_sizes":[],"default_left":[0,0,0,0,0,0,0,0,0,0,0],"id":20,"left_children":[1,3,-1,5,7,-1,-1,-1,9,-1,-1],"loss_changes":[1.6444655E19,2.0019033E19,0E0,1.6832605E19,2.1699247E19,0E0,0E0,0E0,3.559156E17,0E0,0E0],"parents":[2147483647,0,0,1,1,3,3,4,4,8,8],"right_children":[2,4,-1,6,8,-1,-1,-1,10,-1,-1],"split_conditions":[1.1682965E0,-4.382889E-1,-4.212465E8,1.8081014E0,-3.2122707E-1,-4.9977126E8,-2.3350192E7,4.619757E8,3.634591E-2,-2.9259818E7,2.6234254E7],"split_indices":[1069,33,0,10,992,0,0,0,33,0,0],"split_type":[0,0,0,0,0,0,0,0,0,0,0],"sum_hessian":[6.8E1,6.1E1,7E0,2.1E1,4E1,8E0,1.3E1,8E0,3.2E1,1.9E1,1.3E1],"tree_param":{"num_deleted":"0","num_feature":"2926","num_nodes":"11","size_leaf_vector":"1"}},{"base_weights":[1.0093191E7,-1.9062893E8,2.4868798E8,-6.768188E8,3.249879E8,-1.2940191E9,8.445935E7,2.1602571E8,-4.988972E7,-5.865621E8,-6.05684E7],"categories":[],"categories_nodes":[],"categories_segments":[],"categories_sizes":[],"default_left":[0,0,0,0,0,0,0,0,0,0,0],"id":21,"left_children":[1,3,-1,5,7,9,-1,-1,-1,-1,-1],"loss_changes":[1.0359811E19,1.1751592E19,0E0,1.5126025E19,5.862795E18,1.3987006E19,0E0,0E0,0E0,0E0,0E0],"parents":[2147483647,0,0,1,1,3,3,4,4,5,5],"right_children":[2,4,-1,6,8,10,-1,-1,-1,-1,-1],"split_conditions":[6.144518E-1,-1.8238875E-1,2.4868798E8,1.8081014E0,3.6705485E-1,-4.7363322E-2,8.445935E7,2.1602571E8,-4.988972E7,-5.865621E8,-6.05684E7],"split_indices":[739,992,0,10,13,931,0,0,0,0,0],"split_type":[0,0,0,0,0,0,0,0,0,0,0],"sum_hessian":[5.4E1,4.5E1,9E0,2.3E1,2.2E1,1.4E1,9E0,1.1E1,1.1E1,7E0,7E0],"tree_param":{"num_deleted":"0","num_feature":"2926","num_nodes":"11","size_leaf_vector":"1"}},{"base_weights":[3.7113933E8,6.7901894E8,-4.779361E8,7.865594E8,2.865348E8,-1.0684771E8,6.045939E8,-4.723368E7,7.125954E6],"categories":[],"categories_nodes":[],"categories_segments":[],"categories_sizes":[],"default_left":[0,0,0,0,0,0,0,0,0],"id":22,"left_children":[1,3,-1,-1,5,7,-1,-1,-1],"loss_changes":[4.2506486E19,4.815723E19,0E0,0E0,3.763435E19,3.894074E17,0E0,0E0,0E0],"parents":[2147483647,0,0,1,1,4,4,5,5],"right_children":[2,4,-1,-1,6,8,-1,-1,-1],"split_conditions":[-1.8336965E-1,-3.4330767E-1,-4.779361E8,7.865594E8,1.342625E0,-1.0494741E-1,6.045939E8,-4.723368E7,7.125954E6],"split_indices":[73,76,0,0,124,400,0,0,0],"split_type":[0,0,0,0,0,0,0,0,0],"sum_hessian":[6.1E1,5.4E1,7E0,7E0,4.7E1,4E1,7E0,2.6E1,1.4E1],"tree_param":{"num_deleted":"0","num_feature":"2926","num_nodes":"9","size_leaf_vector":"1"}},{"base_weights":[4.0957686E8,7.7247834E8,5.3384252E7,-1.1171788E8,2.0109562E8,1.8901636E6,-3.1231386E8,2.1684854E7,-2.0708088E7,-1.5849259E8,-1.4814691E7],"categories":[],"categories_nodes":[],"categories_segments":[],"categories_sizes":[],"default_left":[0,0,0,0,0,0,0,0,0,0,0],"id":23,"left_children":[1,-1,3,5,-1,7,9,-1,-1,-1,-1],"loss_changes":[5.6532446E19,0E0,6.677296E18,1.07168814E18,0E0,2.0210161E17,1.1976051E18,0E0,0E0,0E0,0E0],"parents":[2147483647,0,0,2,2,3,3,5,5,6,6],"right_children":[2,-1,4,6,-1,8,10,-1,-1,-1,-1],"split_conditions":[-3.6160725E-1,7.7247834E8,-1.9676572E-1,-2.5124416E-1,2.0109562E8,1.8081014E0,-6.9870576E-2,2.1684854E7,-2.0708088E7,-1.5849259E8,-1.4814691E7],"split_indices":[108,0,1069,1106,0,10,179,0,0,0,0],"split_type":[0,0,0,0,0,0,0,0,0,0,0],"sum_hessian":[6.3E1,7E0,5.6E1,4.6E1,1E1,3E1,1.6E1,1.5E1,1.5E1,7E0,9E0],"tree_param":{"num_deleted":"0","num_feature":"2926","num_nodes":"11","size_leaf_vector":"1"}},{"base_weights":[3.0323248E8,7.9892474E8,-1.4281861E8,8.93161E6,-2.7617632E8,1.8386477E8,-2.370356E8,2.8083904E8,-2.492999E7],"categories":[],"categories_nodes":[],"categories_segments":[],"categories_sizes":[],"default_left":[0,0,0,0,0,0,0,0,0],"id":24,"left_children":[1,-1,3,5,-1,7,-1,-1,-1],"loss_changes":[7.60812E19,0E0,7.45953E18,7.700775E18,0E0,9.980544E18,0E0,0E0,0E0],"parents":[2147483647,0,0,2,2,3,3,5,5],"right_children":[2,-1,4,6,-1,8,-1,-1,-1],"split_conditions":[-3.607471E-1,7.9892474E8,-5.6098856E-2,4.0684295E-1,-2.7617632E8,7.9520625E-1,-2.370356E8,2.8083904E8,-2.492999E7],"split_indices":[108,0,1230,34,0,23,0,0,0],"split_type":[0,0,0,0,0,0,0,0,0],"sum_hessian":[6.2E1,8E0,5.4E1,4.7E1,7E0,4E1,7E0,9E0,3.1E1],"tree_param":{"num_deleted":"0","num_feature":"2926","num_nodes":"9","size_leaf_vector":"1"}},{"base_weights":[-7.8112664E7,-6.281559E8,2.6706402E8,7.614845E8,-5.2259978E8,5.35411E8,-4.6067444E7,-2.8397418E8,-7.2803515E6,-4.450216E7,6.9993795E6],"categories":[],"categories_nodes":[],"categories_segments":[],"categories_sizes":[],"default_left":[0,0,0,0,0,0,0,0,0,0,0],"id":25,"left_children":[1,-1,3,5,7,-1,9,-1,-1,-1,-1],"loss_changes":[4.7787665E19,0E0,2.1090526E19,3.3295567E19,5.6095676E18,0E0,1.8779157E17,0E0,0E0,0E0,0E0],"parents":[2147483647,0,0,2,2,3,3,4,4,6,6],"right_children":[2,-1,4,6,8,-1,10,-1,-1,-1,-1],"split_conditions":[-8.3898544E-1,-6.281559E8,-2.2401667E-1,-4.5385137E-2,-4.5385137E-2,5.35411E8,-5.9712124E-1,-2.8397418E8,-7.2803515E6,-4.450216E7,6.9993795E6],"split_indices":[0,0,1113,172,172,0,0,0,0,0,0],"split_type":[0,0,0,0,0,0,0,0,0,0,0],"sum_hessian":[5.9E1,7E0,5.2E1,3.2E1,2E1,1.2E1,2E1,9E0,1.1E1,7E0,1.3E1],"tree_param":{"num_deleted":"0","num_feature":"2926","num_nodes":"11","size_leaf_vector":"1"}},{"base_weights":[1.6130363E8,4.317033E8,-5.757697E7,-2.624376E8,2.6561925E8,-6.098049E8,-3.7780704E7,-2.5537178E8,-1.4815213E7,1.0594345E7,-4.024363E7],"categories":[],"categories_nodes":[],"categories_segments":[],"categories_sizes":[],"default_left":[0,0,0,0,0,0,0,0,0,0,0],"id":26,"left_children":[1,-1,3,5,-1,7,9,-1,-1,-1,-1],"loss_changes":[1.9550396E19,0E0,1.1915265E19,3.5667305E18,0E0,3.415298E18,2.60203E17,0E0,0E0,0E0,0E0],"parents":[2147483647,0,0,2,2,3,3,5,5,6,6],"right_children":[2,-1,4,6,-1,8,10,-1,-1,-1,-1],"split_conditions":[-3.319417E-1,4.317033E8,-9.123429E-2,-3.560297E-1,2.6561925E8,-3.1281263E-1,-1.7474498E-1,-2.5537178E8,-1.4815213E7,1.0594345E7,-4.024363E7],"split_indices":[26,0,162,98,0,992,14,0,0,0,0],"split_type":[0,0,0,0,0,0,0,0,0,0,0],"sum_hessian":[6E1,7E0,5.3E1,4.5E1,8E0,1.7E1,2.8E1,1E1,7E0,1.7E1,1.1E1],"tree_param":{"num_deleted":"0","num_feature":"2926","num_nodes":"11","size_leaf_vector":"1"}},{"base_weights":[-3.1158934E8,-8.4829786E8,4.807793E6,-1.3218903E9,9.409279E6,-9.655256E7,1.8017856E8,-4.2596966E8,-2.3509912E8,-4.5684308E7,-1.0439305E7,9.61477E7,-6.041563E6],"categories":[],"categories_nodes":[],"categories_segments":[],"categories_sizes":[],"default_left":[0,0,0,0,0,0,0,0,0,0,0,0,0],"id":27,"left_children":[1,3,5,7,-1,9,11,-1,-1,-1,-1,-1,-1],"loss_changes":[1.0532488E19,9.671099E18,7.284224E17,4.1032455E17,0E0,1.048496E17,5.5674376E17,0E0,0E0,0E0,0E0,0E0,0E0],"parents":[2147483647,0,0,1,1,2,2,3,3,5,5,6,6],"right_children":[2,4,6,8,-1,10,12,-1,-1,-1,-1,-1,-1],"split_conditions":[-4.5385137E-2,9.910312E-1,-1.6299225E-2,-2.5509897E-1,9.409279E6,3.7856495E-1,3.3752623E-1,-4.2596966E8,-2.3509912E8,-4.5684308E7,-1.0439305E7,9.61477E7,-6.041563E6],"split_indices":[172,9,434,1113,0,4,1149,0,0,0,0,0,0],"split_type":[0,0,0,0,0,0,0,0,0,0,0,0,0],"sum_hessian":[6.1E1,2.2E1,3.9E1,1.4E1,8E0,2.5E1,1.4E1,7E0,7E0,1E1,1.5E1,7E0,7E0],"tree_param":{"num_deleted":"0","num_feature":"2926","num_nodes":"13","size_leaf_vector":"1"}},{"base_weights":[-1.6871763E8,8.258941E7,-5.2532598E8,-1.0750974E8,2.1877744E8,-1.4945542E7,-1.4853232E8,-4.770604E7,1.5190491E8],"categories":[],"categories_nodes":[],"categories_segments":[],"categories_sizes":[],"default_left":[0,0,0,0,0,0,0,0,0],"id":28,"left_children":[1,3,-1,5,-1,7,-1,-1,-1],"loss_changes":[2.9580073E19,8.22158E18,0E0,1.9467229E18,0E0,3.9341725E18,0E0,0E0,0E0],"parents":[2147483647,0,0,1,1,3,3,5,5],"right_children":[2,4,-1,6,-1,8,-1,-1,-1],"split_conditions":[2.355624E-1,-2.2286521E-1,-5.2532598E8,-1.4729944E-1,2.1877744E8,-3.40689E-1,-1.4853232E8,-4.770604E7,1.5190491E8],"split_indices":[1129,109,0,1230,0,1058,0,0,0],"split_type":[0,0,0,0,0,0,0,0,0],"sum_hessian":[6.4E1,5.7E1,7E0,4.6E1,1.1E1,3.9E1,7E0,3.1E1,8E0],"tree_param":{"num_deleted":"0","num_feature":"2926","num_nodes":"9","size_leaf_vector":"1"}},{"base_weights":[3.309231E8,5.2655584E8,6.6663108E7,-1.4800581E8,3.3046426E8,7.0776456E7,-3.0442307E8,4.7909424E7,-9.2353064E7],"categories":[],"categories_nodes":[],"categories_segments":[],"categories_sizes":[],"default_left":[0,0,0,0,0,0,0,0,0],"id":29,"left_children":[1,-1,3,5,-1,7,-1,-1,-1],"loss_changes":[2.5055262E19,0E0,1.3018361E19,9.643352E18,0E0,1.7417923E18,0E0,0E0,0E0],"parents":[2147483647,0,0,2,2,3,3,5,5],"right_children":[2,-1,4,6,-1,8,-1,-1,-1],"split_conditions":[-3.607471E-1,5.2655584E8,2.4164206E-1,-1.3131171E-1,3.3046426E8,-1.9663242E-1,-3.0442307E8,4.7909424E7,-9.2353064E7],"split_indices":[108,0,87,87,0,999,0,0,0],"split_type":[0,0,0,0,0,0,0,0,0],"sum_hessian":[5.7E1,7E0,5E1,4.3E1,7E0,3.6E1,7E0,2.9E1,7E0],"tree_param":{"num_deleted":"0","num_feature":"2926","num_nodes":"9","size_leaf_vector":"1"}},{"base_weights":[7.417703E7,2.9362307E8,-9.831388E7,-2.4367435E8,2.0482981E8,-7.4718024E7,-1.9476634E8,3.459468E7,-1.0807892E8],"categories":[],"categories_nodes":[],"categories_segments":[],"categories_sizes":[],"default_left":[0,0,0,0,0,0,0,0,0],"id":30,"left_children":[1,-1,3,5,-1,7,-1,-1,-1],"loss_changes":[1.1088248E19,0E0,6.986985E18,3.8092083E18,0E0,2.4848094E18,0E0,0E0,0E0],"parents":[2147483647,0,0,2,2,3,3,5,5],"right_children":[2,-1,4,6,-1,8,-1,-1,-1],"split_conditions":[-2.9550588E-1,2.9362307E8,6.478177E-2,-2.2563468E-1,2.0482981E8,-1.7474498E-1,-1.9476634E8,3.459468E7,-1.0807892E8],"split_indices":[1223,0,2119,115,0,14,0,0,0],"split_type":[0,0,0,0,0,0,0,0,0],"sum_hessian":[6.1E1,8E0,5.3E1,4.6E1,7E0,3.5E1,1.1E1,2.2E1,1.3E1],"tree_param":{"num_deleted":"0","num_feature":"2926","num_nodes":"9","size_leaf_vector":"1"}},{"base_weights":[-1.4773398E8,-4.573244E8,2.5088978E8,-4.0514368E8,-1.1306416E8,-1.0998801E8,2.2640514E8,-3.176935E7,-6.4001012E7,-3.4274145E6,-1.2577918E7],"categories":[],"categories_nodes":[],"categories_segments":[],"categories_sizes":[],"default_left":[0,0,0,0,0,0,0,0,0,0,0],"id":31,"left_children":[1,3,5,-1,7,-1,-1,9,-1,-1,-1],"loss_changes":[7.272524E18,1.1889567E19,1.0662032E19,0E0,2.6058968E17,0E0,0E0,4.3434478E15,0E0,0E0,0E0],"parents":[2147483647,0,0,1,1,2,2,4,4,7,7],"right_children":[2,4,6,-1,8,-1,-1,10,-1,-1,-1],"split_conditions":[-2.3938246E-1,-3.560297E-1,1.2140169E0,-4.0514368E8,-1.0817884E-1,-1.0998801E8,2.2640514E8,-4.337057E-1,-6.4001012E7,-3.4274145E6,-1.2577918E7],"split_indices":[175,98,49,0,17,0,0,113,0,0,0],"split_type":[0,0,0,0,0,0,0,0,0,0,0],"sum_hessian":[5.7E1,3.2E1,2.5E1,7E0,2.5E1,1.2E1,1.3E1,1.6E1,9E0,8E0,8E0],"tree_param":{"num_deleted":"0","num_feature":"2926","num_nodes":"11","size_leaf_vector":"1"}},{"base_weights":[-1.4870705E7,3.0365594E8,-5.6990106E8,5.703595E8,2.097683E7,-7.516689E7,1.5234346E8,-1.5765233E5,-7.6391816E7],"categories":[],"categories_nodes":[],"categories_segments":[],"categories_sizes":[],"default_left":[0,0,0,0,0,0,0,0,0],"id":32,"left_children":[1,3,-1,-1,5,7,-1,-1,-1],"loss_changes":[4.6607893E19,3.1074587E19,0E0,0E0,2.8465644E18,7.245171E17,0E0,0E0,0E0],"parents":[2147483647,0,0,1,1,4,4,5,5],"right_children":[2,4,-1,-1,6,8,-1,-1,-1],"split_conditions":[-1.8336965E-1,-7.7610075E-1,-5.6990106E8,5.703595E8,1.1684746E0,1.3088992E-1,1.5234346E8,-1.5765233E5,-7.6391816E7],"split_indices":[73,0,0,0,1115,0,0,0,0],"split_type":[0,0,0,0,0,0,0,0,0],"sum_hessian":[6.7E1,5.9E1,8E0,7E0,5.2E1,4.5E1,7E0,3.4E1,1.1E1],"tree_param":{"num_deleted":"0","num_feature":"2926","num_nodes":"9","size_leaf_vector":"1"}},{"base_weights":[-5.26256E8,-5.763198E8,-1.7476333E8,5.9728228E7,-3.6131747E8,-9.327117E7,1.29485144E8,9.771095E7,-6.470306E7],"categories":[],"categories_nodes":[],"categories_segments":[],"categories_sizes":[],"default_left":[0,0,0,0,0,0,0,0,0],"id":33,"left_children":[1,-1,3,5,-1,7,-1,-1,-1],"loss_changes":[3.2370498E19,0E0,1.3361657E19,2.716002E18,0E0,2.21641E18,0E0,0E0,0E0],"parents":[2147483647,0,0,2,2,3,3,5,5],"right_children":[2,-1,4,6,-1,8,-1,-1,-1],"split_conditions":[-8.075431E-1,-5.763198E8,2.226726E-1,-2.0663565E-1,-3.6131747E8,-3.518808E-1,1.29485144E8,9.771095E7,-6.470306E7],"split_indices":[0,0,92,164,0,108,0,0,0],"split_type":[0,0,0,0,0,0,0,0,0],"sum_hessian":[5.6E1,9E0,4.7E1,4E1,7E0,3E1,1E1,7E0,2.3E1],"tree_param":{"num_deleted":"0","num_feature":"2926","num_nodes":"9","size_leaf_vector":"1"}},{"base_weights":[1.728587E8,2.2945486E8,4.163734E6,-1.4322762E8,2.3192803E8,-4.7964022E8,6.3394188E7,-2.3293482E8,2.9605055E6,4.57589E7,-7.845663E6],"categories":[],"categories_nodes":[],"categories_segments":[],"categories_sizes":[],"default_left":[0,0,0,0,0,0,0,0,0,0,0],"id":34,"left_children":[1,-1,3,5,-1,7,9,-1,-1,-1,-1],"loss_changes":[7.650241E18,0E0,7.01241E18,3.2973848E18,0E0,3.4873903E18,3.0622306E17,0E0,0E0,0E0,0E0],"parents":[2147483647,0,0,2,2,3,3,5,5,6,6],"right_children":[2,-1,4,6,-1,8,10,-1,-1,-1,-1],"split_conditions":[-2.9361656E-1,2.2945486E8,1.6430983E-1,-3.3398727E-1,2.3192803E8,1.0141971E0,-9.391302E-3,-2.3293482E8,2.9605055E6,4.57589E7,-7.845663E6],"split_indices":[90,0,382,740,0,85,0,0,0,0,0],"split_type":[0,0,0,0,0,0,0,0,0,0,0],"sum_hessian":[6.5E1,1.2E1,5.3E1,4.6E1,7E0,1.7E1,2.9E1,9E0,8E0,1.3E1,1.6E1],"tree_param":{"num_deleted":"0","num_feature":"2926","num_nodes":"11","size_leaf_vector":"1"}},{"base_weights":[-1.6669411E8,-3.2886685E8,1.6012373E8,-2.9525648E8,-4.5172385E6,-1.2555435E8,1.2000553E8,8.609136E6,-1.503291E8],"categories":[],"categories_nodes":[],"categories_segments":[],"categories_sizes":[],"default_left":[0,0,0,0,0,0,0,0,0],"id":35,"left_children":[1,3,-1,-1,5,7,-1,-1,-1],"loss_changes":[7.785465E18,1.2866826E19,0E0,0E0,2.0917054E18,2.092465E18,0E0,0E0,0E0],"parents":[2147483647,0,0,1,1,4,4,5,5],"right_children":[2,4,-1,-1,6,8,-1,-1,-1],"split_conditions":[6.144518E-1,-5.58738E-1,1.6012373E8,-2.9525648E8,7.374704E-2,1.235282E-1,1.2000553E8,8.609136E6,-1.503291E8],"split_indices":[745,378,0,0,973,395,0,0,0],"split_type":[0,0,0,0,0,0,0,0,0],"sum_hessian":[6E1,5E1,1E1,1.4E1,3.6E1,2.9E1,7E0,2.2E1,7E0],"tree_param":{"num_deleted":"0","num_feature":"2926","num_nodes":"9","size_leaf_vector":"1"}},{"base_weights":[-3.2925822E7,1.6097309E8,-4.084835E8,3.400308E8,-1.6361368E8,7.463807E7,4.1880816E8,5.8095652E7,-7.268886E7],"categories":[],"categories_nodes":[],"categories_segments":[],"categories_sizes":[],"default_left":[0,0,0,0,0,0,0,0,0],"id":36,"left_children":[1,3,-1,5,-1,7,-1,-1,-1],"loss_changes":[2.0296351E19,8.8057555E18,0E0,1.6533675E19,0E0,2.1967984E18,0E0,0E0,0E0],"parents":[2147483647,0,0,1,1,3,3,5,5],"right_children":[2,4,-1,6,-1,8,-1,-1,-1],"split_conditions":[1.686855E-1,-1.7737864E-1,-4.084835E8,-1.8689078E-1,-1.6361368E8,-2.5942224E-1,4.1880816E8,5.8095652E7,-7.268886E7],"split_indices":[148,1097,0,124,0,115,0,0,0],"split_type":[0,0,0,0,0,0,0,0,0],"sum_hessian":[6.8E1,6.1E1,7E0,5E1,1.1E1,4.2E1,8E0,3E1,1.2E1],"tree_param":{"num_deleted":"0","num_feature":"2926","num_nodes":"9","size_leaf_vector":"1"}},{"base_weights":[2.2822981E8,3.977269E7,4.0511603E8,-2.067031E8,1.7198376E8,6.8309824E8,-1.4682782E8,2.920738E8,-5.4008915E6,-6.4188784E7,-1.7520038E7],"categories":[],"categories_nodes":[],"categories_segments":[],"categories_sizes":[],"default_left":[0,0,0,0,0,0,0,0,0,0,0],"id":37,"left_children":[1,3,-1,-1,5,7,9,-1,-1,-1,-1],"loss_changes":[1.5263469E19,6.165655E18,0E0,0E0,8.08481E18,5.5276276E18,2.202185E17,0E0,0E0,0E0,0E0],"parents":[2147483647,0,0,1,1,4,4,5,5,6,6],"right_children":[2,4,-1,-1,6,8,10,-1,-1,-1,-1],"split_conditions":[2.3184408E-1,-3.590981E-1,4.0511603E8,-2.067031E8,-3.7092602E-1,1.0977087E-1,8.8702554E-1,2.920738E8,-5.4008915E6,-6.4188784E7,-1.7520038E7],"split_indices":[148,86,0,0,388,15,374,0,0,0,0],"split_type":[0,0,0,0,0,0,0,0,0,0,0],"sum_hessian":[6.2E1,5.5E1,7E0,7E0,4.8E1,1.8E1,3E1,1.1E1,7E0,1.3E1,1.7E1],"tree_param":{"num_deleted":"0","num_feature":"2926","num_nodes":"11","size_leaf_vector":"1"}},{"base_weights":[-6.796978E7,-4.1048893E8,1.5965669E8,3.101944E8,-2.2265414E7,-1.14488376E8,1.1164137E8,-2.3453988E6,-1.3595731E8],"categories":[],"categories_nodes":[],"categories_segments":[],"categories_sizes":[],"default_left":[0,0,0,0,0,0,0,0,0],"id":38,"left_children":[1,-1,3,-1,5,7,-1,-1,-1],"loss_changes":[2.0002212E19,0E0,9.517582E18,0E0,1.8774322E18,1.5830252E18,0E0,0E0,0E0],"parents":[2147483647,0,0,2,2,4,4,5,5],"right_children":[2,-1,4,-1,6,8,-1,-1,-1],"split_conditions":[-3.6359227E-1,-4.1048893E8,-6.696805E-1,3.101944E8,1.2480035E0,1.2140169E0,1.1164137E8,-2.3453988E6,-1.3595731E8],"split_indices":[108,0,0,0,989,49,0,0,0],"split_type":[0,0,0,0,0,0,0,0,0],"sum_hessian":[5.8E1,7E0,5.1E1,7E0,4.4E1,3.7E1,7E0,3E1,7E0],"tree_param":{"num_deleted":"0","num_feature":"2926","num_nodes":"9","size_leaf_vector":"1"}},{"base_weights":[-2.5587458E8,3.8073724E7,-3.585073E8,-1.5630418E8,2.810655E8,-1.7761773E8,4.6017028E7,1.0480585E8,-1.908201E7],"categories":[],"categories_nodes":[],"categories_segments":[],"categories_sizes":[],"default_left":[0,0,0,0,0,0,0,0,0],"id":39,"left_children":[1,3,-1,5,-1,-1,7,-1,-1],"loss_changes":[1.9564892E19,9.839002E18,0E0,4.3612874E18,0E0,0E0,1.2924689E18,0E0,0E0],"parents":[2147483647,0,0,1,1,3,3,6,6],"right_children":[2,4,-1,6,-1,-1,8,-1,-1],"split_conditions":[-1.6442543E-1,2.632218E0,-3.585073E8,-2.7820238E-1,2.810655E8,-1.7761773E8,-1.1097425E-1,1.0480585E8,-1.908201E7],"split_indices":[124,6,0,867,0,0,0,0,0],"split_type":[0,0,0,0,0,0,0,0,0],"sum_hessian":[6E1,4.8E1,1.2E1,4.1E1,7E0,1.1E1,3E1,7E0,2.3E1],"tree_param":{"num_deleted":"0","num_feature":"2926","num_nodes":"9","size_leaf_vector":"1"}},{"base_weights":[-2.6436294E8,1.3530164E7,-1.1683612E9,1.563345E8,-1.4560989E8,-5.517267E8,-6.3569612E7,2.7035386E8,-1.3417053E8,-1.2426467E8,2.5718848E6],"categories":[],"categories_nodes":[],"categories_segments":[],"categories_sizes":[],"default_left":[0,0,0,0,0,0,0,0,0,0,0],"id":40,"left_children":[1,3,5,7,-1,-1,-1,-1,9,-1,-1],"loss_changes":[1.709842E19,4.319733E18,1.2902633E19,1.0845184E19,0E0,0E0,0E0,0E0,1.5788528E18,0E0,0E0],"parents":[2147483647,0,0,1,1,2,2,3,3,8,8],"right_children":[2,4,6,8,-1,-1,-1,-1,10,-1,-1],"split_conditions":[-1.6442543E-1,-1.5505724E-1,-2.0477758E-1,-7.7610075E-1,-1.4560989E8,-5.517267E8,-6.3569612E7,2.7035386E8,-3.7490457E-1,-1.2426467E8,2.5718848E6],"split_indices":[124,2029,849,0,0,0,0,0,98,0,0],"split_type":[0,0,0,0,0,0,0,0,0,0,0],"sum_hessian":[6.7E1,5.2E1,1.5E1,4.2E1,1E1,7E0,8E0,1E1,3.2E1,9E0,2.3E1],"tree_param":{"num_deleted":"0","num_feature":"2926","num_nodes":"11","size_leaf_vector":"1"}},{"base_weights":[1.2145759E7,2.0491451E8,-3.5706778E8,5.4920724E7,2.9285802E8,1.699171E8,-1.482078E8,1.6098638E8,-6.3131855E6],"categories":[],"categories_nodes":[],"categories_segments":[],"categories_sizes":[],"default_left":[0,0,0,0,0,0,0,0,0],"id":41,"left_children":[1,3,-1,5,-1,7,-1,-1,-1],"loss_changes":[1.6680237E19,7.441407E18,0E0,3.5350192E18,0E0,3.5403018E18,0E0,0E0,0E0],"parents":[2147483647,0,0,1,1,3,3,5,5],"right_children":[2,4,-1,6,-1,8,-1,-1,-1],"split_conditions":[1.784022E-1,2.65272E-1,-3.5706778E8,8.148822E-1,2.9285802E8,-6.698247E-1,-1.482078E8,1.6098638E8,-6.3131855E6],"split_indices":[148,382,0,14,0,98,0,0,0],"split_type":[0,0,0,0,0,0,0,0,0],"sum_hessian":[6.2E1,5.5E1,7E0,4.8E1,7E0,4.1E1,7E0,1.2E1,2.9E1],"tree_param":{"num_deleted":"0","num_feature":"2926","num_nodes":"9","size_leaf_vector":"1"}},{"base_weights":[1.0980704E8,-7.659628E8,3.8785725E8,-4.5951184E8,4.5263948E7,9.612416E8,6.334888E7,1.7008138E8,3.4299094E8,-1.7095486E7,7.050613E7],"categories":[],"categories_nodes":[],"categories_segments":[],"categories_sizes":[],"default_left":[0,0,0,0,0,0,0,0,0,0,0],"id":42,"left_children":[1,3,5,-1,-1,7,9,-1,-1,-1,-1],"loss_changes":[1.6125103E19,1.4617642E19,9.242508E18,0E0,0E0,1.0712025E18,8.622847E17,0E0,0E0,0E0,0E0],"parents":[2147483647,0,0,1,1,2,2,5,5,6,6],"right_children":[2,4,6,-1,-1,8,10,-1,-1,-1,-1],"split_conditions":[-4.382889E-1,1.0849042E0,-9.320963E-2,-4.5951184E8,4.5263948E7,-4.795435E-1,9.8853074E-2,1.7008138E8,3.4299094E8,-1.7095486E7,7.050613E7],"split_indices":[33,85,720,0,0,84,17,0,0,0,0],"split_type":[0,0,0,0,0,0,0,0,0,0,0],"sum_hessian":[6.4E1,1.5E1,4.9E1,7E0,8E0,1.7E1,3.2E1,1E1,7E0,2E1,1.2E1],"tree_param":{"num_deleted":"0","num_feature":"2926","num_nodes":"11","size_leaf_vector":"1"}},{"base_weights":[-4.4109517E8,-1.1860072E9,1.8872037E8,-5.51571E8,-7.42127E8,1.7395027E8,4.956001E7,-4.2332102E8,3.7512916E7,5.0582012E7,-8.449192E7,-2.2800326E7,4.1560292E7,-1.4608563E7,-2.76453E7],"categories":[],"categories_nodes":[],"categories_segments":[],"categories_sizes":[],"default_left":[0,0,0,0,0,0,0,0,0,0,0,0,0,0,0],"id":43,"left_children":[1,3,5,7,-1,-1,9,-1,11,-1,13,-1,-1,-1,-1],"loss_changes":[2.9780723E19,2.7837774E19,2.2250662E18,1.3480576E19,0E0,0E0,5.41834E17,0E0,2.3159735E17,0E0,2.8637725E15,0E0,0E0,0E0,0E0],"parents":[2147483647,0,0,1,1,2,2,3,3,6,6,8,8,10,10],"right_children":[2,4,6,8,-1,-1,10,-1,12,-1,14,-1,-1,-1,-1],"split_conditions":[-4.645603E-1,-1.0573924E-1,-4.0018952E-1,-2.9116848E-1,-7.42127E8,1.7395027E8,2.9610673E-1,-4.2332102E8,1.0977087E-1,5.0582012E7,-2.5353137E-1,-2.2800326E7,4.1560292E7,-1.4608563E7,-2.76453E7],"split_indices":[98,414,380,182,0,0,4,0,15,0,76,0,0,0,0],"split_type":[0,0,0,0,0,0,0,0,0,0,0,0,0,0,0],"sum_hessian":[6.2E1,2.8E1,3.4E1,2.1E1,7E0,7E0,2.7E1,7E0,1.4E1,1.3E1,1.4E1,7E0,7E0,7E0,7E0],"tree_param":{"num_deleted":"0","num_feature":"2926","num_nodes":"15","size_leaf_vector":"1"}},{"base_weights":[2.1435198E8,5.6765306E8,-5.3336696E7,9.306084E7,-2.2957094E8,-1.1803116E8,2.0573307E8,-1.5252106E8,-2.3703642E5],"categories":[],"categories_nodes":[],"categories_segments":[],"categories_sizes":[],"default_left":[0,0,0,0,0,0,0,0,0],"id":44,"left_children":[1,-1,3,5,-1,7,-1,-1,-1],"loss_changes":[3.3415777E19,0E0,6.935723E18,7.2501654E18,0E0,2.0727746E18,0E0,0E0,0E0],"parents":[2147483647,0,0,2,2,3,3,5,5],"right_children":[2,-1,4,6,-1,8,-1,-1,-1],"split_conditions":[-2.9550588E-1,5.6765306E8,1.7479255E0,-1.8689078E-1,-2.2957094E8,-3.689903E-1,2.0573307E8,-1.5252106E8,-2.3703642E5],"split_indices":[1223,0,989,124,0,88,0,0,0],"split_type":[0,0,0,0,0,0,0,0,0],"sum_hessian":[6.4E1,7E0,5.7E1,4.9E1,8E0,3.8E1,1.1E1,7E0,3.1E1],"tree_param":{"num_deleted":"0","num_feature":"2926","num_nodes":"9","size_leaf_vector":"1"}},{"base_weights":[3.3184554E7,2.3198208E8,-2.1207765E8,4.029493E8,-9.0208424E7,8.083713E8,9.4927496E7,3.413296E8,5.1956876E7,-5.370228E5,7.134419E7],"categories":[],"categories_nodes":[],"categories_segments":[],"categories_sizes":[],"default_left":[0,0,0,0,0,0,0,0,0,0,0],"id":45,"left_children":[1,3,-1,5,-1,7,9,-1,-1,-1,-1],"loss_changes":[1.1052636E19,5.4005075E18,0E0,5.168173E18,0E0,4.956692E18,4.1874966E17,0E0,0E0,0E0,0E0],"parents":[2147483647,0,0,1,1,3,3,5,5,6,6],"right_children":[2,4,-1,6,-1,8,10,-1,-1,-1,-1],"split_conditions":[6.404593E-1,-1.5505724E-1,-2.1207765E8,-4.0884778E-1,-9.0208424E7,4.0684295E-1,2.2110589E-1,3.413296E8,5.1956876E7,-5.370228E5,7.134419E7],"split_indices":[85,2023,0,84,0,40,14,0,0,0,0],"split_type":[0,0,0,0,0,0,0,0,0,0,0],"sum_hessian":[6.5E1,5.3E1,1.2E1,4.1E1,1.2E1,1.7E1,2.4E1,9E0,8E0,1.6E1,8E0],"tree_param":{"num_deleted":"0","num_feature":"2926","num_nodes":"11","size_leaf_vector":"1"}},{"base_weights":[2.2467416E8,3.499416E8,5.6305012E7,-1.0811926E8,4.432936E8,-1.7654747E8,1.7294414E8,1.748064E8,5.480985E7,-5.0626455E6,1.4338125E8],"categories":[],"categories_nodes":[],"categories_segments":[],"categories_sizes":[],"default_left":[0,0,0,0,0,0,0,0,0,0,0],"id":46,"left_children":[1,-1,3,5,7,-1,9,-1,-1,-1,-1],"loss_changes":[1.0910811E19,0E0,3.4203355E18,6.0293936E18,6.723272E17,0E0,1.8297556E18,0E0,0E0,0E0,0E0],"parents":[2147483647,0,0,2,2,3,3,4,4,6,6],"right_children":[2,-1,4,6,8,-1,10,-1,-1,-1,-1],"split_conditions":[-3.607471E-1,3.499416E8,6.000552E-1,-1.8849342E-1,-4.954922E-1,-1.7654747E8,-1.7005125E-2,1.748064E8,5.480985E7,-5.0626455E6,1.4338125E8],"split_indices":[108,0,85,985,4,0,1235,0,0,0,0],"split_type":[0,0,0,0,0,0,0,0,0,0,0],"sum_hessian":[5.9E1,7E0,5.2E1,3.7E1,1.5E1,1.2E1,2.5E1,7E0,8E0,1.7E1,8E0],"tree_param":{"num_deleted":"0","num_feature":"2926","num_nodes":"11","size_leaf_vector":"1"}},{"base_weights":[-2.2762203E8,-3.8352477E8,2.3141272E7,2.1515069E8,-1.7785218E8,1.6545622E8,1.1913113E8,-4.911849E6,1.6078955E8],"categories":[],"categories_nodes":[],"categories_segments":[],"categories_sizes":[],"default_left":[0,0,0,0,0,0,0,0,0],"id":47,"left_children":[1,-1,3,5,-1,-1,7,-1,-1],"loss_changes":[1.945763E19,0E0,7.2973454E18,1.59908E18,0E0,0E0,2.4063213E18,0E0,0E0],"parents":[2147483647,0,0,2,2,3,3,6,6],"right_children":[2,-1,4,6,-1,-1,8,-1,-1],"split_conditions":[-4.0832448E-1,-3.8352477E8,2.6635408E-1,-4.5955315E-1,-1.7785218E8,1.6545622E8,-6.734798E-2,-4.911849E6,1.6078955E8],"split_indices":[87,0,1249,113,0,0,163,0,0],"split_type":[0,0,0,0,0,0,0,0,0],"sum_hessian":[6.3E1,1E1,5.3E1,4.2E1,1.1E1,7E0,3.5E1,2.8E1,7E0],"tree_param":{"num_deleted":"0","num_feature":"2926","num_nodes":"9","size_leaf_vector":"1"}},{"base_weights":[-1.9581794E8,-2.8246643E8,2.40699E7,1.754318E8,-1.3362627E8,3.1638974E7,1.8955546E8,9.43615E7,-4.3537012E7],"categories":[],"categories_nodes":[],"categories_segments":[],"categories_sizes":[],"default_left":[0,0,0,0,0,0,0,0,0],"id":48,"left_children":[1,-1,3,5,-1,7,-1,-1,-1],"loss_changes":[1.1224544E19,0E0,3.902755E18,2.902288E18,0E0,2.003874E18,0E0,0E0,0E0],"parents":[2147483647,0,0,2,2,3,3,5,5],"right_children":[2,-1,4,6,-1,8,-1,-1,-1],"split_conditions":[-7.5433296E-1,-2.8246643E8,1.1423146E0,1.2140169E0,-1.3362627E8,-2.6979122E-1,1.8955546E8,9.43615E7,-4.3537012E7],"split_indices":[0,0,1227,49,0,90,0,0,0],"split_type":[0,0,0,0,0,0,0,0,0],"sum_hessian":[5.8E1,1.1E1,4.7E1,3.7E1,1E1,3E1,7E0,1.1E1,1.9E1],"tree_param":{"num_deleted":"0","num_feature":"2926","num_nodes":"9","size_leaf_vector":"1"}},{"base_weights":[-2.0721309E8,-4.195821E8,-1.849075E7,1.4348422E8,-1.9692606E8,4.010644E7,1.7824187E8,-1.3202936E7,1.1392237E8],"categories":[],"categories_nodes":[],"categories_segments":[],"categories_sizes":[],"default_left":[0,0,0,0,0,0,0,0,0],"id":49,"left_children":[1,-1,3,5,-1,7,-1,-1,-1],"loss_changes":[1.6984435E19,0E0,6.9851446E18,2.6315667E18,0E0,1.47772E18,0E0,0E0,0E0],"parents":[2147483647,0,0,2,2,3,3,5,5],"right_children":[2,-1,4,6,-1,8,-1,-1,-1],"split_conditions":[-3.6259976E-1,-4.195821E8,1.1423146E0,-1.8689078E-1,-1.9692606E8,6.144518E-1,1.7824187E8,-1.3202936E7,1.1392237E8],"split_indices":[108,0,1227,124,0,739,0,0,0],"split_type":[0,0,0,0,0,0,0,0,0],"sum_hessian":[6.5E1,7E0,5.8E1,4.8E1,1E1,4.1E1,7E0,3.4E1,7E0],"tree_param":{"num_deleted":"0","num_feature":"2926","num_nodes":"9","size_leaf_vector":"1"}},{"base_weights":[-1.2373764E7,2.9194726E8,-9.4480006E8,3.0132573E8,8.583508E7,-4.064945E8,-6.5993856E7,2.8441984E7,5.5428136E7,-1.3242758E7,2.513176E7],"categories":[],"categories_nodes":[],"categories_segments":[],"categories_sizes":[],"default_left":[0,0,0,0,0,0,0,0,0,0,0],"id":50,"left_children":[1,3,5,-1,7,-1,-1,9,-1,-1,-1],"loss_changes":[1.7301249E19,7.8464657E18,5.6823685E18,0E0,2.6012344E17,0E0,0E0,1.4338585E17,0E0,0E0,0E0],"parents":[2147483647,0,0,1,1,2,2,4,4,7,7],"right_children":[2,4,6,-1,8,-1,-1,10,-1,-1,-1],"split_conditions":[3.3534773E-2,-3.6350733E-1,-2.6835132E-1,3.0132573E8,-2.2286521E-1,-4.064945E8,-6.5993856E7,3.8352963E-2,5.5428136E7,-1.3242758E7,2.513176E7],"split_indices":[1008,76,985,0,109,0,0,110,0,0,0],"split_type":[0,0,0,0,0,0,0,0,0,0,0],"sum_hessian":[5.9E1,4.5E1,1.4E1,8E0,3.7E1,7E0,7E0,2.6E1,1.1E1,1.2E1,1.4E1],"tree_param":{"num_deleted":"0","num_feature":"2926","num_nodes":"11","size_leaf_vector":"1"}},{"base_weights":[-6.883308E7,1.6856757E8,-9.347133E8,1.7122534E8,2.1524228E7,-4.287192E8,-3.8724852E7,-4.925006E7,8.9597784E7,1.2312476E7,4.9310852E7],"categories":[],"categories_nodes":[],"categories_segments":[],"categories_sizes":[],"default_left":[0,0,0,0,0,0,0,0,0,0,0],"id":51,"left_children":[1,3,5,-1,7,-1,-1,-1,9,-1,-1],"loss_changes":[1.4341239E19,3.814809E18,7.733094E18,0E0,6.200594E17,0E0,0E0,0E0,1.2803904E17,0E0,0E0],"parents":[2147483647,0,0,1,1,2,2,4,4,8,8],"right_children":[2,4,6,-1,8,-1,-1,-1,10,-1,-1],"split_conditions":[5.768875E-2,-2.9638135E-1,-2.2401667E-1,1.7122534E8,-3.7490457E-1,-4.287192E8,-3.8724852E7,-4.925006E7,1.8081014E0,1.2312476E7,4.9310852E7],"split_indices":[1129,15,1113,0,98,0,0,0,10,0,0],"split_type":[0,0,0,0,0,0,0,0,0,0,0],"sum_hessian":[6.8E1,5.4E1,1.4E1,1.2E1,4.2E1,7E0,7E0,1E1,3.2E1,2.3E1,9E0],"tree_param":{"num_deleted":"0","num_feature":"2926","num_nodes":"11","size_leaf_vector":"1"}},{"base_weights":[1.6763717E8,1.1759314E9,-1.791787E8,5.5490726E8,3.0100412E6,6.228759E7,-3.2155984E8,1.2125474E7,6.805275E7,1.5412828E7,-3.5228828E7],"categories":[],"categories_nodes":[],"categories_segments":[],"categories_sizes":[],"default_left":[0,0,0,0,0,0,0,0,0,0,0],"id":52,"left_children":[1,3,5,-1,-1,7,-1,9,-1,-1,-1],"loss_changes":[2.1891633E19,1.6832804E19,1.1724135E19,0E0,0E0,3.742075E17,0E0,2.1834763E17,0E0,0E0,0E0],"parents":[2147483647,0,0,1,1,2,2,5,5,7,7],"right_children":[2,4,6,-1,-1,8,-1,10,-1,-1,-1],"split_conditions":[-3.5485035E-1,2.632218E0,5.768875E-2,5.5490726E8,3.0100412E6,1.8015559E-1,-3.2155984E8,-9.3305245E-2,6.805275E7,1.5412828E7,-3.5228828E7],"split_indices":[76,6,1129,0,0,1055,0,15,0,0,0],"split_type":[0,0,0,0,0,0,0,0,0,0,0],"sum_hessian":[6.1E1,1.5E1,4.6E1,8E0,7E0,3.8E1,8E0,3.1E1,7E0,2.4E1,7E0],"tree_param":{"num_deleted":"0","num_feature":"2926","num_nodes":"11","size_leaf_vector":"1"}}]},"name":"gbtree"},"learner_model_param":{"base_score":"3.4108068E9","boost_from_average":"1","num_class":"0","num_feature":"2926","num_target":"1"},"objective":{"name":"reg:squarederror","reg_loss_param":{"scale_pos_weight":"1"}}},"version":[2,0,3]}